{"learner":{"attributes":{"scikit_learn":"{\"_estimator_type\": \"classifier\"}"},"feature_names":["TransactionDT","TransactionAmt","ProductCD","card1","card2","card3","card4","card5","card6","addr1","addr2","dist1","P_emaildomain","R_emaildomain","C1","C2","C3","C4","C5","C6","C7","C8","C9","C10","C11","C12","C13","C14","D1","D2","D3","D4","D5","D10","D11","D15","M1","M2","M3","M4","M5","M6","M7","M8","M9","V1","V2","V3","V4","V5","V6","V7","V8","V9","V10","V11","V12","V13","V14","V15","V16","V17","V18","V19","V20","V21","V22","V23","V24","V25","V26","V27","V28","V29","V30","V31","V32","V33","V34","V35","V36","V37","V38","V39","V40","V41","V42","V43","V44","V45","V46","V47","V48","V49","V50","V51","V52","V53","V54","V55","V56","V57","V58","V59","V60","V61","V62","V63","V64","V65","V66","V67","V68","V69","V70","V71","V72","V73","V74","V75","V76","V77","V78","V79","V80","V81","V82","V83","V84","V85","V86","V87","V88","V89","V90","V91","V92","V93","V94","V95","V96","V97","V98","V99","V100","V101","V102","V103","V104","V105","V106","V107","V108","V109","V110","V111","V112","V113","V114","V115","V116","V117","V118","V119","V120","V121","V122","V123","V124","V125","V126","V127","V128","V129","V130","V131","V132","V133","V134","V135","V136","V137","V167","V168","V169","V170","V171","V172","V173","V174","V175","V176","V177","V178","V179","V180","V181","V182","V183","V184","V185","V186","V187","V188","V189","V190","V191","V192","V193","V194","V195","V196","V197","V198","V199","V200","V201","V202","V203","V204","V205","V206","V207","V208","V209","V210","V211","V212","V213","V214","V215","V216","V217","V218","V219","V220","V221","V222","V223","V224","V225","V226","V227","V228","V229","V230","V231","V232","V233","V234","V235","V236","V237","V238","V239","V240","V241","V242","V243","V244","V245","V246","V247","V248","V249","V250","V251","V252","V253","V254","V255","V256","V257","V258","V259","V260","V261","V262","V263","V264","V265","V266","V267","V268","V269","V270","V271","V272","V273","V274","V275","V276","V277","V278","V279","V280","V281","V282","V283","V284","V285","V286","V287","V288","V289","V290","V291","V292","V293","V294","V295","V296","V297","V298","V299","V300","V301","V302","V303","V304","V305","V306","V307","V308","V309","V310","V311","V312","V313","V314","V315","V316","V317","V318","V319","V320","V321","id_01","id_02","id_05","id_06","id_11","id_12","id_13","id_15","id_16","id_17","id_19","id_20","id_28","id_29","id_31","id_35","id_36","id_37","id_38","DeviceType","DeviceInfo","card1_amt_mean","card1_amt_std","card1_tx_count","tx_hour","tx_day","amt_deviation","is_night","is_high_amt"],"feature_types":["int","float","int","int","float","float","int","float","int","float","float","float","int","int","float","float","float","float","float","float","float","float","float","float","float","float","float","float","float","float","float","float","float","float","float","float","int","int","int","int","int","int","int","int","int","float","float","float","float","float","float","float","float","float","float","float","float","float","float","float","float","float","float","float","float","float","float","float","float","float","float","float","float","float","float","float","float","float","float","float","float","float","float","float","float","float","float","float","float","float","float","float","float","float","float","float","float","float","float","float","float","float","float","float","float","float","float","float","float","float","float","float","float","float","float","float","float","float","float","float","float","float","float","float","float","float","float","float","float","float","float","float","float","float","float","float","float","float","float","float","float","float","float","float","float","float","float","float","float","float","float","float","float","float","float","float","float","float","float","float","float","float","float","float","float","float","float","float","float","float","float","float","float","float","float","float","float","float","float","float","float","float","float","float","float","float","float","float","float","float","float","float","float","float","float","float","float","float","float","float","float","float","float","float","float","float","float","float","float","float","float","float","float","float","float","float","float","float","float","float","float","float","float","float","float","float","float","float","float","float","float","float","float","float","float","float","float","float","float","float","float","float","float","float","float","float","float","float","float","float","float","float","float","float","float","float","float","float","float","float","float","float","float","float","float","float","float","float","float","float","float","float","float","float","float","float","float","float","float","float","float","float","float","float","float","float","float","float","float","float","float","float","float","float","float","float","float","float","float","float","float","float","float","float","float","float","float","float","float","float","float","float","float","float","float","float","float","float","float","float","float","float","float","float","float","float","float","float","float","float","float","float","float","float","float","float","float","float","float","float","float","float","int","float","int","int","float","float","float","int","int","int","int","int","int","int","int","int","float","float","int","int","int","float","int","int"],"gradient_booster":{"model":{"cats":{"enc":[],"feature_segments":[],"sorted_idx":[]},"gbtree_model_param":{"num_parallel_tree":"1","num_trees":"300"},"iteration_indptr":[0,1,2,3,4,5,6,7,8,9,10,11,12,13,14,15,16,17,18,19,20,21,22,23,24,25,26,27,28,29,30,31,32,33,34,35,36,37,38,39,40,41,42,43,44,45,46,47,48,49,50,51,52,53,54,55,56,57,58,59,60,61,62,63,64,65,66,67,68,69,70,71,72,73,74,75,76,77,78,79,80,81,82,83,84,85,86,87,88,89,90,91,92,93,94,95,96,97,98,99,100,101,102,103,104,105,106,107,108,109,110,111,112,113,114,115,116,117,118,119,120,121,122,123,124,125,126,127,128,129,130,131,132,133,134,135,136,137,138,139,140,141,142,143,144,145,146,147,148,149,150,151,152,153,154,155,156,157,158,159,160,161,162,163,164,165,166,167,168,169,170,171,172,173,174,175,176,177,178,179,180,181,182,183,184,185,186,187,188,189,190,191,192,193,194,195,196,197,198,199,200,201,202,203,204,205,206,207,208,209,210,211,212,213,214,215,216,217,218,219,220,221,222,223,224,225,226,227,228,229,230,231,232,233,234,235,236,237,238,239,240,241,242,243,244,245,246,247,248,249,250,251,252,253,254,255,256,257,258,259,260,261,262,263,264,265,266,267,268,269,270,271,272,273,274,275,276,277,278,279,280,281,282,283,284,285,286,287,288,289,290,291,292,293,294,295,296,297,298,299,300],"tree_info":[0,0,0,0,0,0,0,0,0,0,0,0,0,0,0,0,0,0,0,0,0,0,0,0,0,0,0,0,0,0,0,0,0,0,0,0,0,0,0,0,0,0,0,0,0,0,0,0,0,0,0,0,0,0,0,0,0,0,0,0,0,0,0,0,0,0,0,0,0,0,0,0,0,0,0,0,0,0,0,0,0,0,0,0,0,0,0,0,0,0,0,0,0,0,0,0,0,0,0,0,0,0,0,0,0,0,0,0,0,0,0,0,0,0,0,0,0,0,0,0,0,0,0,0,0,0,0,0,0,0,0,0,0,0,0,0,0,0,0,0,0,0,0,0,0,0,0,0,0,0,0,0,0,0,0,0,0,0,0,0,0,0,0,0,0,0,0,0,0,0,0,0,0,0,0,0,0,0,0,0,0,0,0,0,0,0,0,0,0,0,0,0,0,0,0,0,0,0,0,0,0,0,0,0,0,0,0,0,0,0,0,0,0,0,0,0,0,0,0,0,0,0,0,0,0,0,0,0,0,0,0,0,0,0,0,0,0,0,0,0,0,0,0,0,0,0,0,0,0,0,0,0,0,0,0,0,0,0,0,0,0,0,0,0,0,0,0,0,0,0,0,0,0,0,0,0,0,0,0,0,0,0,0,0,0,0,0,0,0,0,0,0,0,0,0,0,0,0,0,0],"trees":[{"base_weights":[2.9863007E-3,-2.9757047E-1,1.7186188E0,3.227554E-2,-1.3464803E0,1.206546E0,1.889087E0,-2.7215412E-1,9.0637875E-1,-1.43054E0,3.6990234E-1,1.6954738E0,4.4991243E-1,1.909243E0,-1.0111253E0,1.057242E0,-5.165637E-1,9.336598E-1,-1.5782614E0,-1.7042909E0,-1.2592726E0,-1.6540276E0,7.021525E-1,8.658768E-1,1.819732E0,-8.577246E-1,8.331342E-1,1.9139651E0,-5.5436635E-1,7.580174E-1,-9.8910086E-2,4.358267E-1,1.3272498E0,-6.645752E-1,9.8282474E-1,8.498399E-1,1.7168093E0,1.585066E0,-1.9018555E0,-7.6034755E-2,-1.7198567E0,-1.3089876E0,6.609297E-2,8.733387E-2,-1.75987E0,1.1403813E0,-1.05774194E-1,-1.5856818E0,1.237046E0,1.8336176E0,-9.2857145E-2,-1.364224E0,4.5360255E-1,-1.5836514E0,1.0047789E0,1.7078433E0,1.9479647E0,-9.5744684E-2,1.3544654E0,-9.090909E-2,1.4352412E0,-2.191477E-4,3.97454E-2,2.6921604E-2,7.408564E-2,-4.176105E-2,1.261723E-2,5.995613E-2,-6.9948666E-2,2.8112506E-2,5.8164753E-2,7.646168E-3,8.980517E-2,-7.333334E-2,9.650108E-2,-9.966045E-2,8.733387E-2,7.184284E-2,-9.828326E-2,-8.7512925E-2,-4.238576E-2,-6.7705445E-2,-1.3964784E-2,5.1189687E-2,-3.429906E-2,2.8432359E-3,-9.952663E-2,7.743141E-2,-1.1458223E-3,-4.4340953E-2,5.7249457E-2,7.6176494E-2,-9.84375E-2,6.5556996E-2,-9.1304354E-2,9.1962695E-2,-8.4E-2,3.3688003E-3,-7.817092E-2,5.636671E-2,-9.7333334E-2,4.261517E-2,-9.915434E-2,1.7085765E-2,5.923852E-2,8.993409E-2,2.4386577E-2,9.7536705E-2,-2.6581842E-2,9.323874E-2,-6.923077E-2,-8.0000006E-2,9.04698E-2],"categories":[],"categories_nodes":[],"categories_segments":[],"categories_sizes":[],"default_left":[0,0,0,0,0,0,0,0,0,0,0,0,0,0,0,0,0,0,0,0,0,0,0,0,0,0,0,0,0,0,0,0,0,0,0,0,0,0,0,0,0,0,0,0,0,0,0,0,0,0,0,0,0,0,0,0,0,0,0,0,0,0,0,0,0,0,0,0,0,0,0,0,0,0,0,0,0,0,0,0,0,0,0,0,0,0,0,0,0,0,0,0,0,0,0,0,0,0,0,0,0,0,0,0,0,0,0,0,0,0,0,0,0],"id":0,"left_children":[1,3,5,7,9,11,13,15,17,19,21,23,25,27,29,31,33,35,37,39,41,43,45,47,49,51,53,55,57,59,-1,61,63,65,67,69,71,73,75,77,79,81,83,-1,85,87,89,91,93,95,-1,97,99,101,103,105,107,-1,109,-1,111,-1,-1,-1,-1,-1,-1,-1,-1,-1,-1,-1,-1,-1,-1,-1,-1,-1,-1,-1,-1,-1,-1,-1,-1,-1,-1,-1,-1,-1,-1,-1,-1,-1,-1,-1,-1,-1,-1,-1,-1,-1,-1,-1,-1,-1,-1,-1,-1,-1,-1,-1,-1],"loss_changes":[9.407885E4,5.371357E4,2.3718984E3,3.142981E4,5.3592344E3,2.5131963E3,1.1946328E3,2.8463906E4,2.0695234E3,1.6579219E3,1.1677734E3,4.239287E2,1.3381311E3,2.3679688E2,2.4354913E2,2.282124E3,1.6422818E4,1.9795918E3,3.4257977E2,3.4516797E2,1.4354883E3,9.123566E1,5.279946E2,4.9298862E2,1.8664941E2,4.0270184E2,8.580061E2,1.3840625E2,1.052801E2,9.110819E1,0E0,6.5162067E2,1.1546934E3,1.053841E4,3.4269941E3,2.4570234E3,3.614248E2,3.5812477E1,1.0393823E2,3.7462817E2,3.5632812E2,9.7516797E2,5.6867145E2,0E0,9.98645E1,4.5913733E2,5.1410645E2,8.8033844E1,1.0889014E2,7.391016E1,0E0,1.24709045E2,2.761798E2,1.3527435E2,2.297196E2,3.174082E2,1.2021094E2,0E0,2.6400337E1,0E0,4.9144768E1,0E0,0E0,0E0,0E0,0E0,0E0,0E0,0E0,0E0,0E0,0E0,0E0,0E0,0E0,0E0,0E0,0E0,0E0,0E0,0E0,0E0,0E0,0E0,0E0,0E0,0E0,0E0,0E0,0E0,0E0,0E0,0E0,0E0,0E0,0E0,0E0,0E0,0E0,0E0,0E0,0E0,0E0,0E0,0E0,0E0,0E0,0E0,0E0,0E0,0E0,0E0,0E0],"parents":[2147483647,0,0,1,1,2,2,3,3,4,4,5,5,6,6,7,7,8,8,9,9,10,10,11,11,12,12,13,13,14,14,15,15,16,16,17,17,18,18,19,19,20,20,21,21,22,22,23,23,24,24,25,25,26,26,27,27,28,28,29,29,31,31,32,32,33,33,34,34,35,35,36,36,37,37,38,38,39,39,40,40,41,41,42,42,44,44,45,45,46,46,47,47,48,48,49,49,51,51,52,52,53,53,54,54,55,55,56,56,58,58,60,60],"right_children":[2,4,6,8,10,12,14,16,18,20,22,24,26,28,30,32,34,36,38,40,42,44,46,48,50,52,54,56,58,60,-1,62,64,66,68,70,72,74,76,78,80,82,84,-1,86,88,90,92,94,96,-1,98,100,102,104,106,108,-1,110,-1,112,-1,-1,-1,-1,-1,-1,-1,-1,-1,-1,-1,-1,-1,-1,-1,-1,-1,-1,-1,-1,-1,-1,-1,-1,-1,-1,-1,-1,-1,-1,-1,-1,-1,-1,-1,-1,-1,-1,-1,-1,-1,-1,-1,-1,-1,-1,-1,-1,-1,-1,-1,-1],"split_conditions":[2E0,1E0,3E0,7.915E0,2E2,1E0,3.2E1,1E0,1.6E1,1.1502581E2,1.1512394E2,1E0,2.606907E6,2E0,3.27E2,1E0,3E0,5E0,1.5E1,1.44E2,3.595E1,2.1485825E1,6.7E1,2.405206E6,3E0,2E0,1.5E2,4E0,2E0,2.69E2,-9.8910086E-2,1.5995E2,2.405206E6,2E0,2.6E2,3.35E2,3E0,1E0,1.4E1,3.6E2,2E0,3E1,3E0,8.733387E-2,1.19E2,3.35E2,3.22834E1,3.38727E5,9.5E2,9.5E2,-9.2857145E-2,5.95042E5,3E0,1.04E2,2E0,2E0,4.295E1,-9.5744684E-2,3.9989204E1,-9.090909E-2,1.59E2,-2.191477E-4,3.97454E-2,2.6921604E-2,7.408564E-2,-4.176105E-2,1.261723E-2,5.995613E-2,-6.9948666E-2,2.8112506E-2,5.8164753E-2,7.646168E-3,8.980517E-2,-7.333334E-2,9.650108E-2,-9.966045E-2,8.733387E-2,7.184284E-2,-9.828326E-2,-8.7512925E-2,-4.238576E-2,-6.7705445E-2,-1.3964784E-2,5.1189687E-2,-3.429906E-2,2.8432359E-3,-9.952663E-2,7.743141E-2,-1.1458223E-3,-4.4340953E-2,5.7249457E-2,7.6176494E-2,-9.84375E-2,6.5556996E-2,-9.1304354E-2,9.1962695E-2,-8.4E-2,3.3688003E-3,-7.817092E-2,5.636671E-2,-9.7333334E-2,4.261517E-2,-9.915434E-2,1.7085765E-2,5.923852E-2,8.993409E-2,2.4386577E-2,9.7536705E-2,-2.6581842E-2,9.323874E-2,-6.923077E-2,-8.0000006E-2,9.04698E-2],"split_indices":[273,114,14,332,327,27,175,27,300,358,358,342,0,187,9,17,21,21,34,5,173,359,35,0,99,204,5,14,275,9,0,1,0,298,28,332,14,34,14,4,134,177,35,0,4,329,177,0,218,218,0,0,191,7,15,27,174,0,358,0,174,0,0,0,0,0,0,0,0,0,0,0,0,0,0,0,0,0,0,0,0,0,0,0,0,0,0,0,0,0,0,0,0,0,0,0,0,0,0,0,0,0,0,0,0,0,0,0,0,0,0,0,0],"split_type":[0,0,0,0,0,0,0,0,0,0,0,0,0,0,0,0,0,0,0,0,0,0,0,0,0,0,0,0,0,0,0,0,0,0,0,0,0,0,0,0,0,0,0,0,0,0,0,0,0,0,0,0,0,0,0,0,0,0,0,0,0,0,0,0,0,0,0,0,0,0,0,0,0,0,0,0,0,0,0,0,0,0,0,0,0,0,0,0,0,0,0,0,0,0,0,0,0,0,0,0,0,0,0,0,0,0,0,0,0,0,0,0,0],"sum_hessian":[1.8244692E5,1.5524995E5,2.719697E4,1.1810954E5,3.714041E4,6.794605E3,2.0402365E4,8.760089E4,3.0508648E4,3.5406547E4,1.7338654E3,4.1267236E3,2.6678816E3,2.026189E4,1.4047534E2,1.3603765E4,7.3997125E4,3.0177924E4,3.3072534E2,1.362293E4,2.1783615E4,2.4393521E2,1.4899302E3,5.386239E2,3.5880996E3,6.043768E2,2.0635046E3,2.022335E4,3.854014E1,4.972535E1,9.075E1,4.121305E3,9.48246E3,6.734932E4,6.647805E3,2.726216E4,2.9157625E3,3.0330278E1,3.0039508E2,1.2905563E2,1.3493875E4,2.0996057E4,7.875591E2,6.8950696E0,2.3704015E2,9.6570764E2,5.2422253E2,7.039507E1,4.6822882E2,3.5750996E3,1.3E1,4.3595068E2,1.6842604E2,1.3629015E2,1.9272146E3,2.8707468E3,1.7352604E4,2.25E1,1.6040138E1,1E1,3.972535E1,1.8519393E3,2.269366E3,1.553495E3,7.928965E3,5.6781875E4,1.0567445E4,6.094814E3,5.5299084E2,1.4219137E4,1.3043024E4,1.4084576E2,2.7749165E3,2.75E0,2.7580278E1,2.935E2,6.8950696E0,7.1805626E1,5.725E1,1.3038368E4,4.5550632E2,2.0114328E4,8.817288E2,3.4626263E2,4.4129645E2,2.6790138E1,2.1025E2,7.145964E2,2.5111125E2,3.228859E2,2.013366E2,7.3950696E0,6.3E1,4.5772882E2,1.05E1,3.5698496E3,5.25E0,5.3330276E1,3.8262042E2,1.3192604E2,3.65E1,1.9040138E1,1.1725E2,4.1207742E2,1.5151372E3,2.6713855E3,1.9936125E2,1.7333457E4,1.914507E1,1.3790139E1,2.25E0,4E0,3.572535E1],"tree_param":{"num_deleted":"0","num_feature":"366","num_nodes":"113","size_leaf_vector":"1"}},{"base_weights":[-7.04941E-4,-3.3092508E-1,1.3461453E0,-6.1338407E-1,7.9167086E-1,6.2842524E-1,1.7440889E0,9.226361E-1,-8.020085E-1,8.8829935E-1,-2.6354054E-1,1.2198602E0,1.184473E-1,1.7583685E0,-9.516471E-2,2.431233E-1,1.3234435E0,-9.022806E-1,8.863154E-1,6.160556E-1,1.1492583E0,-1.297677E0,1.4552218E-1,1.6627221E0,5.688435E-1,-8.7761454E-2,9.847209E-1,1.7749817E0,-4.3012244E-1,4.7753018E-1,-1.2484446E0,1.1333526E0,1.8201025E0,4.7922227E-1,-1.0039175E0,-3.0585113E-1,1.4185766E0,4.5659685E-1,1.6601027E0,9.8595524E-1,1.4874754E0,-1.4309202E0,1.1999737E0,-4.313344E-1,9.575742E-1,4.4999403E-1,1.7524213E0,4.307552E-1,1.5821009E0,-2.6046985E-1,9.833792E-1,-1.1102668E0,1.1597332E0,4.59608E-1,1.7901869E0,1.0223006E0,-1.6649514E0,1.1937666E-2,5.3447135E-2,-6.899248E-2,2.4125924E-2,6.584171E-2,2.3211261E-2,9.1136314E-2,-6.227277E-2,-8.441864E-3,4.319312E-2,-3.4463093E-2,-6.803125E-2,6.1921265E-2,-4.7375247E-2,8.358369E-2,2.140661E-2,-6.301795E-3,4.1086312E-2,3.677694E-2,9.099542E-2,2.8274888E-2,6.683129E-2,3.417068E-2,7.878699E-2,5.4120447E-2,-7.677102E-2,9.266447E-2,-8.266965E-2,4.8825856E-2,-3.9000373E-2,5.568678E-2,-9.9121414E-2,5.59075E-2,-4.739541E-2,-8.364974E-2,8.785491E-2,2.8294269E-2,-2.7205074E-2,8.255954E-2,-8.334337E-2,-3.536351E-2,1.202216E-2,6.227249E-2,-5.2202493E-2,-9.471779E-2,4.88238E-2,6.1947234E-2,-6.330668E-2,-8.159298E-2,6.283805E-2,8.9692935E-2,-9.2741765E-2,7.091963E-2,-9.205592E-2,8.325075E-2,-9.726802E-2],"categories":[],"categories_nodes":[],"categories_segments":[],"categories_sizes":[],"default_left":[0,0,0,0,0,0,0,0,0,0,0,0,0,0,0,0,0,0,0,0,0,0,0,0,0,0,0,0,0,0,0,0,0,0,0,0,0,0,0,0,0,0,0,0,0,0,0,0,0,0,0,0,0,0,0,0,0,0,0,0,0,0,0,0,0,0,0,0,0,0,0,0,0,0,0,0,0,0,0,0,0,0,0,0,0,0,0,0,0,0,0,0,0,0,0,0,0,0,0,0,0,0,0,0,0,0,0,0,0,0,0,0,0],"id":1,"left_children":[1,3,5,7,9,11,13,15,17,19,21,23,25,27,-1,29,31,33,35,37,39,41,43,45,47,49,51,53,55,57,59,61,63,65,67,69,71,73,75,77,79,81,83,85,87,89,91,93,95,97,99,101,103,105,107,109,111,-1,-1,-1,-1,-1,-1,-1,-1,-1,-1,-1,-1,-1,-1,-1,-1,-1,-1,-1,-1,-1,-1,-1,-1,-1,-1,-1,-1,-1,-1,-1,-1,-1,-1,-1,-1,-1,-1,-1,-1,-1,-1,-1,-1,-1,-1,-1,-1,-1,-1,-1,-1,-1,-1,-1,-1],"loss_changes":[8.110014E4,4.6435504E4,1.0253719E4,3.390028E4,3.0020234E3,3.8630864E3,1.2063359E3,3.4850293E3,1.7642273E4,1.9153828E3,1.0452743E3,1.7088564E3,1.2288864E3,8.3727344E2,0E0,1.661031E3,7.5785254E2,1.381218E4,3.7078037E3,2.1971294E3,7.590449E2,2.3478711E2,8.3008765E2,3.8309277E2,3.3547083E2,1.0283094E3,4.862555E2,4.558828E2,3.1403116E2,5.794087E2,1.4743347E2,7.143867E2,2.0177734E1,1.6805984E3,1.0283086E4,1.788928E3,1.0118716E3,2.4368079E3,2.570498E2,1.3688096E3,3.1698145E2,1.7640625E2,7.019803E1,5.0942526E2,3.4008215E2,2.2932092E2,5.557617E1,2.7901553E2,6.734845E1,1.0713984E3,4.1139423E2,1.6954099E2,2.3623267E2,4.3934048E2,3.054375E2,9.40736E1,9.148212E1,0E0,0E0,0E0,0E0,0E0,0E0,0E0,0E0,0E0,0E0,0E0,0E0,0E0,0E0,0E0,0E0,0E0,0E0,0E0,0E0,0E0,0E0,0E0,0E0,0E0,0E0,0E0,0E0,0E0,0E0,0E0,0E0,0E0,0E0,0E0,0E0,0E0,0E0,0E0,0E0,0E0,0E0,0E0,0E0,0E0,0E0,0E0,0E0,0E0,0E0,0E0,0E0,0E0,0E0,0E0,0E0],"parents":[2147483647,0,0,1,1,2,2,3,3,4,4,5,5,6,6,7,7,8,8,9,9,10,10,11,11,12,12,13,13,15,15,16,16,17,17,18,18,19,19,20,20,21,21,22,22,23,23,24,24,25,25,26,26,27,27,28,28,29,29,30,30,31,31,32,32,33,33,34,34,35,35,36,36,37,37,38,38,39,39,40,40,41,41,42,42,43,43,44,44,45,45,46,46,47,47,48,48,49,49,50,50,51,51,52,52,53,53,54,54,55,55,56,56],"right_children":[2,4,6,8,10,12,14,16,18,20,22,24,26,28,-1,30,32,34,36,38,40,42,44,46,48,50,52,54,56,58,60,62,64,66,68,70,72,74,76,78,80,82,84,86,88,90,92,94,96,98,100,102,104,106,108,110,112,-1,-1,-1,-1,-1,-1,-1,-1,-1,-1,-1,-1,-1,-1,-1,-1,-1,-1,-1,-1,-1,-1,-1,-1,-1,-1,-1,-1,-1,-1,-1,-1,-1,-1,-1,-1,-1,-1,-1,-1,-1,-1,-1,-1,-1,-1,-1,-1,-1,-1,-1,-1,-1,-1,-1,-1],"split_conditions":[6.4045E0,1E0,3E0,1E0,1E0,1E0,2E1,1E0,2E0,3E0,1.1502581E2,1E0,2E0,2.97E2,-9.516471E-2,1E0,2E0,5E0,4E0,2E0,1.8603241E2,2E0,1.05E2,1E0,2E0,1.312322E2,1.5E2,1E0,1E0,3.65E2,1.0361E4,2E0,2.7E2,7.7E1,3E0,2E0,2.6E1,1.8520927E2,5E0,2E0,3.65E1,1.44E2,2.69E2,1.1587767E2,1.73E3,5.9738E4,1.19E2,4.614E3,3E0,1.85E2,1E0,2.3E1,1.0344E4,5.8E1,2E0,1.1207E4,1.04E2,1.1937666E-2,5.3447135E-2,-6.899248E-2,2.4125924E-2,6.584171E-2,2.3211261E-2,9.1136314E-2,-6.227277E-2,-8.441864E-3,4.319312E-2,-3.4463093E-2,-6.803125E-2,6.1921265E-2,-4.7375247E-2,8.358369E-2,2.140661E-2,-6.301795E-3,4.1086312E-2,3.677694E-2,9.099542E-2,2.8274888E-2,6.683129E-2,3.417068E-2,7.878699E-2,5.4120447E-2,-7.677102E-2,9.266447E-2,-8.266965E-2,4.8825856E-2,-3.9000373E-2,5.568678E-2,-9.9121414E-2,5.59075E-2,-4.739541E-2,-8.364974E-2,8.785491E-2,2.8294269E-2,-2.7205074E-2,8.255954E-2,-8.334337E-2,-3.536351E-2,1.202216E-2,6.227249E-2,-5.2202493E-2,-9.471779E-2,4.88238E-2,6.1947234E-2,-6.330668E-2,-8.159298E-2,6.283805E-2,8.9692935E-2,-9.2741765E-2,7.091963E-2,-9.205592E-2,8.325075E-2,-9.726802E-2],"split_indices":[279,309,14,26,134,26,140,17,17,298,358,294,259,29,0,18,14,29,14,20,358,67,327,342,259,286,5,126,239,1,360,2,32,1,39,26,26,359,14,24,328,5,9,358,332,338,5,360,308,5,104,361,360,351,188,3,4,0,0,0,0,0,0,0,0,0,0,0,0,0,0,0,0,0,0,0,0,0,0,0,0,0,0,0,0,0,0,0,0,0,0,0,0,0,0,0,0,0,0,0,0,0,0,0,0,0,0,0,0,0,0,0,0],"split_type":[0,0,0,0,0,0,0,0,0,0,0,0,0,0,0,0,0,0,0,0,0,0,0,0,0,0,0,0,0,0,0,0,0,0,0,0,0,0,0,0,0,0,0,0,0,0,0,0,0,0,0,0,0,0,0,0,0,0,0,0,0,0,0,0,0,0,0,0,0,0,0,0,0,0,0,0,0,0,0,0,0,0,0,0,0,0,0,0,0,0,0,0,0,0,0,0,0,0,0,0,0,0,0,0,0,0,0,0,0,0,0,0,0],"sum_hessian":[1.8234505E5,1.4644138E5,3.5903676E4,1.1700255E5,2.943883E4,1.2807321E4,2.3096354E4,1.27961455E4,1.042064E5,2.6969336E4,2.469495E3,5.929422E3,6.8779E3,2.3006799E4,8.955467E1,4.7480684E3,8.048077E3,9.836483E4,5.8415737E3,1.3200919E4,1.3768417E4,6.993419E2,1.7701531E3,3.5279429E3,2.4014792E3,5.5561953E3,1.3217043E3,2.2833654E4,1.7314557E2,4.1038145E3,6.442539E2,5.82276E3,2.2253176E3,6.7405034E3,9.162432E4,1.8031892E3,4.0383848E3,1.1453107E4,1.7478118E3,9.287841E3,4.4805757E3,6.643288E2,3.5013107E1,1.035228E3,7.3492505E2,2.4338644E2,3.2845564E3,2.1147085E3,2.867706E2,4.7853696E3,7.7082587E2,1.01488686E2,1.2202157E3,2.6128674E2,2.2572367E4,7.9641846E1,9.350373E1,2.924486E3,1.1793285E3,5.9898517E2,4.5268738E1,4.568942E3,1.2538182E3,2.2238196E3,1.4979436E0,2.5107822E3,4.229721E3,4.8683242E4,4.2941082E4,5.2903174E2,1.2741575E3,3.2159072E3,8.2247754E2,4.41261E3,7.0404976E3,2.5840433E2,1.4894075E3,4.2248345E3,5.0630063E3,4.4406122E2,4.0365146E3,2.614556E1,6.381832E2,2.877515E1,6.237958E0,2.0513708E2,8.30091E2,6.9844745E2,3.647761E1,1.6481152E2,7.857492E1,3.9920332E0,3.2805642E3,1.8576317E3,2.5707687E2,2.8128088E2,5.4897027E0,2.529085E3,2.2562847E3,6.829338E2,8.789207E1,7.3836845E1,2.765184E1,1.182106E3,3.8109802E1,7.181657E1,1.8947018E2,2.255016E4,2.2208124E1,7.040718E1,9.234659E0,6.8786964E0,8.662504E1],"tree_param":{"num_deleted":"0","num_feature":"366","num_nodes":"113","size_leaf_vector":"1"}},{"base_weights":[9.279119E-3,-2.5843227E-1,1.5651621E0,4.084296E-2,-1.2132835E0,1.1012007E0,1.7204517E0,-2.3465239E-1,8.2832795E-1,-1.3454906E0,-3.9064378E-1,1.5497026E0,4.0812102E-1,1.734936E0,-1.5461698E0,9.8462224E-1,-4.6179298E-1,7.3888147E-1,1.5366658E0,-1.4346839E0,-1.0662047E0,-6.659075E-1,4.2093295E-1,7.7506363E-1,1.6653141E0,-8.732425E-1,7.7248883E-1,1.7399265E0,-6.479347E-1,8.005219E-2,-9.135201E-2,1.4450963E0,6.95194E-1,-5.812664E-1,1.0494003E0,4.0139395E-1,9.883339E-1,9.423071E-1,1.6877474E0,-1.4584796E0,-4.884314E-1,-9.099562E-1,-1.3382742E0,-9.105076E-1,8.875556E-2,1.0002486E0,-6.069323E-1,-1.2178926E0,1.12807E0,1.6744347E0,-8.7147094E-2,-1.3264415E0,2.0877339E-1,2.1092469E-2,1.0101835E0,1.7487398E0,8.4407413E-1,-9.020256E-2,9.634118E-1,4.8522511E-4,7.498788E-2,2.6567116E-2,8.793428E-2,-3.7262082E-2,1.3909402E-2,6.1897703E-2,-5.6847837E-2,2.5356924E-2,-6.373786E-2,2.808196E-2,5.9888262E-2,6.2624335E-2,-8.40919E-2,8.529239E-2,-9.9281594E-2,-8.064116E-2,-6.806703E-2,1.1081608E-2,-9.332636E-2,-5.1689036E-2,-1.1508982E-3,-5.6207795E-2,-8.457532E-2,-5.3465385E-2,-2.2268399E-4,3.6296345E-2,-3.709356E-2,6.025939E-2,-3.7599973E-2,-6.529508E-2,7.2772674E-2,-9.4028525E-2,4.615594E-2,5.982817E-2,-9.012874E-2,8.427239E-2,5.8494597E-3,-4.4936385E-2,-9.5619105E-2,-6.277559E-2,6.8090566E-2,1.7942725E-2,-8.155817E-2,1.0400751E-2,5.7197332E-2,8.046286E-2,8.964954E-2,-4.254428E-2,6.8867736E-2,8.227434E-2,-7.6021925E-2],"categories":[],"categories_nodes":[],"categories_segments":[],"categories_sizes":[],"default_left":[0,0,0,0,0,0,0,0,0,0,0,0,0,0,0,0,0,0,0,0,0,0,0,0,0,0,0,0,0,0,0,0,0,0,0,0,0,0,0,0,0,0,0,0,0,0,0,0,0,0,0,0,0,0,0,0,0,0,0,0,0,0,0,0,0,0,0,0,0,0,0,0,0,0,0,0,0,0,0,0,0,0,0,0,0,0,0,0,0,0,0,0,0,0,0,0,0,0,0,0,0,0,0,0,0,0,0,0,0,0,0],"id":2,"left_children":[1,3,5,7,9,11,13,15,17,19,21,23,25,27,29,31,33,35,37,39,41,43,45,47,49,51,53,55,57,-1,-1,59,61,63,65,67,69,71,73,75,77,79,81,83,85,87,89,91,93,95,-1,97,99,101,103,105,107,-1,109,-1,-1,-1,-1,-1,-1,-1,-1,-1,-1,-1,-1,-1,-1,-1,-1,-1,-1,-1,-1,-1,-1,-1,-1,-1,-1,-1,-1,-1,-1,-1,-1,-1,-1,-1,-1,-1,-1,-1,-1,-1,-1,-1,-1,-1,-1,-1,-1,-1,-1,-1,-1],"loss_changes":[7.605375E4,4.451769E4,1.9293672E3,2.5732588E4,4.042625E3,2.0897139E3,9.528203E2,2.4335984E4,1.9465527E3,7.9629297E2,1.1504819E3,3.6431152E2,1.234812E3,2.3888281E2,8.175389E1,1.838081E3,1.337421E4,2.297587E3,3.0782178E2,5.458203E2,3.285127E2,7.098428E2,7.774515E2,3.756632E2,1.1331152E2,2.874892E2,3.6765442E2,1.5605469E2,8.093571E1,0E0,0E0,4.1778613E2,1.4759302E3,9.674453E3,2.2388296E3,2.0571504E3,1.401835E3,5.723786E2,1.8597461E2,3.5277734E2,5.845155E2,5.4141797E2,2.1194385E2,4.1781958E2,4.9914978E2,3.0066455E2,6.806908E2,1.1600035E2,9.2983765E1,6.05625E1,0E0,1.0177045E2,2.9509225E2,2.7724344E2,1.675675E2,1.1905078E2,1.7860876E2,0E0,3.3694656E1,0E0,0E0,0E0,0E0,0E0,0E0,0E0,0E0,0E0,0E0,0E0,0E0,0E0,0E0,0E0,0E0,0E0,0E0,0E0,0E0,0E0,0E0,0E0,0E0,0E0,0E0,0E0,0E0,0E0,0E0,0E0,0E0,0E0,0E0,0E0,0E0,0E0,0E0,0E0,0E0,0E0,0E0,0E0,0E0,0E0,0E0,0E0,0E0,0E0,0E0,0E0,0E0],"parents":[2147483647,0,0,1,1,2,2,3,3,4,4,5,5,6,6,7,7,8,8,9,9,10,10,11,11,12,12,13,13,14,14,15,15,16,16,17,17,18,18,19,19,20,20,21,21,22,22,23,23,24,24,25,25,26,26,27,27,28,28,31,31,32,32,33,33,34,34,35,35,36,36,37,37,38,38,39,39,40,40,41,41,42,42,43,43,44,44,45,45,46,46,47,47,48,48,49,49,51,51,52,52,53,53,54,54,55,55,56,56,58,58],"right_children":[2,4,6,8,10,12,14,16,18,20,22,24,26,28,30,32,34,36,38,40,42,44,46,48,50,52,54,56,58,-1,-1,60,62,64,66,68,70,72,74,76,78,80,82,84,86,88,90,92,94,96,-1,98,100,102,104,106,108,-1,110,-1,-1,-1,-1,-1,-1,-1,-1,-1,-1,-1,-1,-1,-1,-1,-1,-1,-1,-1,-1,-1,-1,-1,-1,-1,-1,-1,-1,-1,-1,-1,-1,-1,-1,-1,-1,-1,-1,-1,-1,-1,-1,-1,-1,-1,-1,-1,-1,-1,-1,-1,-1],"split_conditions":[2E0,1E0,3E0,1E0,6.8E1,1E0,3.02E2,1E0,4E0,1.5995E2,1.05E2,1E0,2.606907E6,2E0,2E0,1E0,4E0,1.8362952E2,5E0,5.83E2,2.8E1,6.9483E1,7E0,2.405206E6,3E0,2E0,3.7031E1,1E0,2E0,8.005219E-2,-9.135201E-2,1E0,2E0,2E0,2.6E2,7E0,2.3E2,1.3906E4,3.4667E0,4.65E2,2.8E1,4E0,1.1401E4,5.5385E1,1E0,3.33E2,5.04E2,1.6873E4,4.73027E2,5.295E1,-8.7147094E-2,1.0505E4,2E0,4E0,2E0,5E0,3E0,-9.020256E-2,3E0,4.8522511E-4,7.498788E-2,2.6567116E-2,8.793428E-2,-3.7262082E-2,1.3909402E-2,6.1897703E-2,-5.6847837E-2,2.5356924E-2,-6.373786E-2,2.808196E-2,5.9888262E-2,6.2624335E-2,-8.40919E-2,8.529239E-2,-9.9281594E-2,-8.064116E-2,-6.806703E-2,1.1081608E-2,-9.332636E-2,-5.1689036E-2,-1.1508982E-3,-5.6207795E-2,-8.457532E-2,-5.3465385E-2,-2.2268399E-4,3.6296345E-2,-3.709356E-2,6.025939E-2,-3.7599973E-2,-6.529508E-2,7.2772674E-2,-9.4028525E-2,4.615594E-2,5.982817E-2,-9.012874E-2,8.427239E-2,5.8494597E-3,-4.4936385E-2,-9.5619105E-2,-6.277559E-2,6.8090566E-2,1.7942725E-2,-8.155817E-2,1.0400751E-2,5.7197332E-2,8.046286E-2,8.964954E-2,-4.254428E-2,6.8867736E-2,8.227434E-2,-7.6021925E-2],"split_indices":[273,135,14,309,172,27,174,27,23,1,328,342,0,187,2,2,21,359,14,4,31,332,35,0,308,202,359,143,275,0,0,30,23,298,28,143,332,3,281,360,31,15,3,326,43,328,33,3,228,335,0,3,268,233,244,14,237,0,27,0,0,0,0,0,0,0,0,0,0,0,0,0,0,0,0,0,0,0,0,0,0,0,0,0,0,0,0,0,0,0,0,0,0,0,0,0,0,0,0,0,0,0,0,0,0,0,0,0,0,0,0],"split_type":[0,0,0,0,0,0,0,0,0,0,0,0,0,0,0,0,0,0,0,0,0,0,0,0,0,0,0,0,0,0,0,0,0,0,0,0,0,0,0,0,0,0,0,0,0,0,0,0,0,0,0,0,0,0,0,0,0,0,0,0,0,0,0,0,0,0,0,0,0,0,0,0,0,0,0,0,0,0,0,0,0,0,0,0,0,0,0,0,0,0,0,0,0,0,0,0,0,0,0,0,0,0,0,0,0,0,0,0,0,0,0],"sum_hessian":[1.82588E5,1.5578402E5,2.680398E4,1.1860963E5,3.7174387E4,6.723665E3,2.0080314E4,8.786979E4,3.0739844E4,3.202671E4,5.1476743E3,4.0813362E3,2.6423286E3,1.9992139E4,8.817691E1,1.3798277E4,7.407151E4,2.7295148E4,3.444695E3,2.4271258E4,7.7554536E3,3.8440583E3,1.3036157E3,5.310189E2,3.5503174E3,5.84707E2,2.0576216E3,1.9950625E4,4.151301E1,6.83942E0,8.133749E1,5.3239673E3,8.47431E3,6.864511E4,5.4263975E3,1.1601684E4,1.5693465E4,6.9961755E2,2.7450774E3,2.3675344E4,5.959141E2,4.9290596E3,2.8263938E3,2.902952E3,9.4110645E2,8.337387E2,4.6987704E2,7.953588E1,4.5148303E2,3.5413494E3,8.967956E0,4.1194092E2,1.7276607E2,4.9474142E2,1.5628801E3,1.975532E4,1.9530374E2,2.4101187E1,1.7411823E1,1.9534846E2,5.1286187E3,7.3442793E3,1.1300306E3,5.7646812E4,1.0998299E4,4.995973E3,4.3042432E2,1.0913852E4,6.878323E2,5.1679614E3,1.0525504E4,6.261303E2,7.348724E1,2.7321504E3,1.292708E1,9.138946E3,1.4536397E4,3.9383167E2,2.0208249E2,4.325075E3,6.039844E2,1.7623152E3,1.0640786E3,2.469886E3,4.3306607E2,5.326434E2,4.0846307E2,7.4671655E2,8.7022194E1,3.5121313E2,1.1866389E2,6.0829735E1,1.8706144E1,4.417504E2,9.73263E0,3.5164016E3,2.4947748E1,2.3958615E2,1.7235477E2,7.607137E1,9.66947E1,4.1141983E2,8.3321594E1,2.2373187E2,1.3391482E3,4.7669316E3,1.498839E4,4.659914E1,1.487046E2,1.3925385E1,3.4864388E0],"tree_param":{"num_deleted":"0","num_feature":"366","num_nodes":"111","size_leaf_vector":"1"}},{"base_weights":[-9.913287E-4,-2.5863054E-1,1.4980748E0,-5.290924E-1,7.213782E-1,1.0476198E0,1.6497782E0,8.1489354E-1,-7.0372975E-1,7.959906E-1,-2.5541446E-1,1.4857823E0,3.6668053E-1,1.6612265E0,-8.9636E-2,1.2254701E0,3.4521604E-1,-8.290659E-1,5.7983905E-1,7.156373E-1,1.4624213E0,-1.0448998E0,9.3093656E-2,7.380878E-1,1.5972576E0,-7.396422E-1,7.0032007E-1,1.6666304E0,-1.143996E0,5.6008595E-1,1.3629452E0,4.9492374E-1,-9.367144E-1,-5.058375E-1,-1.2197288E0,-8.7181E-2,1.351292E0,5.4154134E-1,1.1823835E0,8.4330165E-1,1.6183683E0,1.326578E-1,-1.3578724E0,1.2991097E0,-2.4504444E-1,-1.4908776E0,1.1174488E0,1.6057456E0,-8.3303496E-2,-1.2100061E0,3.0043364E-1,-1.4619833E0,8.5449684E-1,1.6765699E0,5.566604E-1,-8.815776E-2,7.698908E-2,-5.161584E-3,5.797086E-2,1.6482761E-2,6.970086E-2,-7.5899716E-4,4.1430574E-2,-4.1407287E-2,-9.015103E-2,8.397586E-3,-3.6757573E-2,-6.311462E-2,4.4194157E-3,5.546177E-2,-2.5518987E-2,8.223742E-2,1.7724864E-2,2.8565854E-2,-9.001612E-2,4.0985897E-2,6.9650896E-2,-2.7102977E-2,6.3721925E-2,8.176323E-2,-9.909845E-2,4.145148E-2,-8.881283E-2,5.2332263E-2,-7.377835E-2,8.921754E-2,-5.279472E-2,-3.525626E-2,3.482811E-2,6.446499E-2,-9.056174E-2,-9.4143756E-2,5.8937103E-2,-8.8147E-2,8.053803E-2,-2.6386319E-2,-7.448266E-2,3.919355E-2,-9.116803E-2,4.0562958E-2,-9.187638E-2,2.4247244E-3,5.105939E-2,7.4365094E-2,8.541026E-2,-3.899044E-2,6.99578E-2],"categories":[],"categories_nodes":[],"categories_segments":[],"categories_sizes":[],"default_left":[0,0,0,0,0,0,0,0,0,0,0,0,0,0,0,0,0,0,0,0,0,0,0,0,0,0,0,0,0,0,0,0,0,0,0,0,0,0,0,0,0,0,0,0,0,0,0,0,0,0,0,0,0,0,0,0,0,0,0,0,0,0,0,0,0,0,0,0,0,0,0,0,0,0,0,0,0,0,0,0,0,0,0,0,0,0,0,0,0,0,0,0,0,0,0,0,0,0,0,0,0,0,0,0,0,0,0],"id":3,"left_children":[1,3,5,7,9,11,13,15,17,19,21,23,25,27,-1,29,31,33,35,37,39,41,43,45,47,49,51,53,55,57,59,61,63,65,67,69,71,73,75,77,79,81,83,85,87,89,91,93,-1,95,97,99,101,103,105,-1,-1,-1,-1,-1,-1,-1,-1,-1,-1,-1,-1,-1,-1,-1,-1,-1,-1,-1,-1,-1,-1,-1,-1,-1,-1,-1,-1,-1,-1,-1,-1,-1,-1,-1,-1,-1,-1,-1,-1,-1,-1,-1,-1,-1,-1,-1,-1,-1,-1,-1,-1],"loss_changes":[6.988017E4,4.092447E4,1.8116211E3,2.840157E4,2.4340586E3,1.9949053E3,7.852383E2,2.6830488E3,1.722884E4,1.6603555E3,6.5235266E2,3.379795E2,9.67553E2,3.0180078E2,0E0,6.783916E2,1.2463865E3,1.231907E4,4.902626E3,2.249331E3,3.2085547E2,2.6777106E2,6.713679E2,4.4967136E2,1.0073828E2,2.9756848E2,6.7246173E2,2.1691797E2,6.6905365E1,5.0620624E2,1.9707715E2,9.896162E2,6.2390564E1,8.249598E3,2.4595938E3,2.5880898E3,1.2917158E3,1.4074038E3,5.7341406E2,4.0300504E2,1.6534521E2,2.0534727E2,1.639032E2,4.138407E2,5.576226E2,7.1348526E1,8.5586975E1,6.2501953E1,0E0,7.9068115E1,1.9649248E2,1.1620444E2,2.5253491E2,1.1463672E2,2.0010536E2,0E0,0E0,0E0,0E0,0E0,0E0,0E0,0E0,0E0,0E0,0E0,0E0,0E0,0E0,0E0,0E0,0E0,0E0,0E0,0E0,0E0,0E0,0E0,0E0,0E0,0E0,0E0,0E0,0E0,0E0,0E0,0E0,0E0,0E0,0E0,0E0,0E0,0E0,0E0,0E0,0E0,0E0,0E0,0E0,0E0,0E0,0E0,0E0,0E0,0E0,0E0,0E0],"parents":[2147483647,0,0,1,1,2,2,3,3,4,4,5,5,6,6,7,7,8,8,9,9,10,10,11,11,12,12,13,13,15,15,16,16,17,17,18,18,19,19,20,20,21,21,22,22,23,23,24,24,25,25,26,26,27,27,28,28,29,29,30,30,31,31,32,32,33,33,34,34,35,35,36,36,37,37,38,38,39,39,40,40,41,41,42,42,43,43,44,44,45,45,46,46,47,47,49,49,50,50,51,51,52,52,53,53,54,54],"right_children":[2,4,6,8,10,12,14,16,18,20,22,24,26,28,-1,30,32,34,36,38,40,42,44,46,48,50,52,54,56,58,60,62,64,66,68,70,72,74,76,78,80,82,84,86,88,90,92,94,-1,96,98,100,102,104,106,-1,-1,-1,-1,-1,-1,-1,-1,-1,-1,-1,-1,-1,-1,-1,-1,-1,-1,-1,-1,-1,-1,-1,-1,-1,-1,-1,-1,-1,-1,-1,-1,-1,-1,-1,-1,-1,-1,-1,-1,-1,-1,-1,-1,-1,-1,-1,-1,-1,-1,-1,-1],"split_conditions":[2E0,1E0,3E0,1E0,1E0,1E0,9.666E2,2E0,2E0,4E0,1.1502581E2,1E0,2.606907E6,2E0,-8.9636E-2,2.405206E6,1E0,3E0,5E0,1.559E2,5E0,1E0,1.1587767E2,2.405206E6,3E0,2E0,1.5E2,2.595E1,5E0,1.83E2,2E0,1.5995E2,4.2E2,2E0,6.22644E1,2E0,2.4E1,1.5E1,3E2,4.165042E1,3.14E2,2E0,1.44E2,1E0,2E0,3.38727E5,1.19E2,1.19E2,-8.3303496E-2,1.39E2,3E0,1.04E2,4.081224E1,4E0,5.4378E1,-8.815776E-2,7.698908E-2,-5.161584E-3,5.797086E-2,1.6482761E-2,6.970086E-2,-7.5899716E-4,4.1430574E-2,-4.1407287E-2,-9.015103E-2,8.397586E-3,-3.6757573E-2,-6.311462E-2,4.4194157E-3,5.546177E-2,-2.5518987E-2,8.223742E-2,1.7724864E-2,2.8565854E-2,-9.001612E-2,4.0985897E-2,6.9650896E-2,-2.7102977E-2,6.3721925E-2,8.176323E-2,-9.909845E-2,4.145148E-2,-8.881283E-2,5.2332263E-2,-7.377835E-2,8.921754E-2,-5.279472E-2,-3.525626E-2,3.482811E-2,6.446499E-2,-9.056174E-2,-9.4143756E-2,5.8937103E-2,-8.8147E-2,8.053803E-2,-2.6386319E-2,-7.448266E-2,3.919355E-2,-9.116803E-2,4.0562958E-2,-9.187638E-2,2.4247244E-3,5.105939E-2,7.4365094E-2,8.541026E-2,-3.899044E-2,6.99578E-2],"split_indices":[273,309,14,27,73,27,177,2,23,23,358,342,0,187,0,0,18,39,14,330,14,49,358,0,308,202,5,174,277,5,30,1,9,8,324,26,26,147,333,358,29,306,5,64,114,0,4,5,0,7,191,7,358,14,225,0,0,0,0,0,0,0,0,0,0,0,0,0,0,0,0,0,0,0,0,0,0,0,0,0,0,0,0,0,0,0,0,0,0,0,0,0,0,0,0,0,0,0,0,0,0,0,0,0,0,0,0],"split_type":[0,0,0,0,0,0,0,0,0,0,0,0,0,0,0,0,0,0,0,0,0,0,0,0,0,0,0,0,0,0,0,0,0,0,0,0,0,0,0,0,0,0,0,0,0,0,0,0,0,0,0,0,0,0,0,0,0,0,0,0,0,0,0,0,0,0,0,0,0,0,0,0,0,0,0,0,0,0,0,0,0,0,0,0,0,0,0,0,0,0,0,0,0,0,0,0,0,0,0,0,0,0,0,0,0,0,0],"sum_hessian":[1.8093245E5,1.5439753E5,2.6534932E4,1.2100355E5,3.3393977E4,6.6870137E3,1.9847918E4,1.3914644E4,1.0708891E5,3.1024363E4,2.3696133E3,4.0681248E3,2.618889E3,1.9782646E4,6.5271324E1,7.4235835E3,6.4910596E3,9.75626E4,9.526305E3,2.7688021E4,3.3363423E3,7.2507715E2,1.6445361E3,5.288186E2,3.5393062E3,6.0651514E2,2.0123738E3,1.9745018E4,3.762975E1,1.2720232E3,6.1515605E3,5.8128335E3,6.782263E2,5.339046E4,4.4172137E4,5.109432E3,4.416873E3,2.016766E4,7.520361E3,6.72577E2,2.6637654E3,1.5236835E2,5.727088E2,3.5949738E2,1.2850388E3,7.648646E1,4.5233215E2,3.5306309E3,8.675306E0,4.175286E2,1.8898651E2,1.3337195E2,1.8790018E3,1.9569268E4,1.757493E2,3.0854511E1,6.775237E0,6.0417377E2,6.6784937E2,1.7992238E2,5.971638E3,2.299134E3,3.5136995E3,6.0443256E2,7.379379E1,1.3556856E4,3.9833605E4,4.278019E4,1.3919465E3,1.3346498E3,3.7747822E3,3.4117913E3,1.0050816E3,1.9915203E4,2.5245671E2,2.7648296E3,4.7555312E3,1.5957178E2,5.1300525E2,2.651866E3,1.1899347E1,1.1205602E2,4.031232E1,2.6356138E1,5.4635266E2,2.9828003E2,6.121735E1,8.6341473E2,4.2162405E2,7.590316E0,6.889614E1,8.460663E0,4.438715E2,4.7271376E0,3.5259038E3,1.22221375E2,2.9530722E2,1.5445824E2,3.4528275E1,1.8744936E1,1.14627014E2,3.2222675E2,1.556775E3,2.809362E3,1.6759906E4,6.798214E1,1.0776716E2],"tree_param":{"num_deleted":"0","num_feature":"366","num_nodes":"107","size_leaf_vector":"1"}},{"base_weights":[-3.4267246E-3,-2.4347971E-1,1.4372902E0,3.0437503E-2,-1.1214948E0,1.0070591E0,1.5860177E0,-2.2325541E-1,7.546516E-1,-1.2401572E0,-3.7808636E-1,1.42335E0,3.958625E-1,1.5993543E0,-8.6977795E-2,8.6594653E-1,-4.2096117E-1,5.056542E-1,9.737961E-1,-1.4675325E0,-1.0958706E0,-1.1337408E0,-6.4750664E-2,6.8945336E-1,1.5350467E0,-7.601323E-1,7.178402E-1,1.6047527E0,-1.0778004E0,1.3162907E0,5.9120685E-1,-5.476362E-1,8.497582E-1,1.8695357E-1,1.059609E0,1.0143944E0,-1.633398E0,-7.299713E-1,-1.485179E0,-9.327605E-1,-1.2915756E0,-1.2631902E0,6.82583E-1,-3.9992398E-1,7.1567E-1,-1.0838078E0,9.9810463E-1,1.5473666E0,-8.877748E-2,-1.3478189E0,1.4660884E-1,-1.5821813E0,8.66948E-1,1.6129762E0,6.2471676E-1,-8.5023575E-2,8.016866E-2,-2.285207E-3,6.8391256E-2,2.1779856E-2,8.2896195E-2,6.812674E-3,-3.6169544E-2,5.1902648E-2,-5.8744818E-2,1.4690042E-2,-2.6169896E-2,3.209484E-2,6.722721E-2,5.4805823E-2,5.0095245E-3,-9.1610186E-2,8.396318E-2,4.06454E-2,-8.878979E-2,-7.568573E-2,-5.1314622E-2,-4.9059328E-2,-1.3369406E-2,-6.896775E-2,-4.770119E-2,-6.570074E-2,6.641354E-2,9.2055134E-2,-3.0368254E-2,5.0254982E-2,-3.3570316E-2,6.030516E-2,-8.721112E-3,-8.6498074E-2,5.1190723E-2,6.0733832E-2,-1.817889E-2,-8.484622E-2,7.763222E-2,1.5440456E-2,-7.72532E-2,2.730464E-2,-9.0373054E-2,-8.8870876E-2,7.624524E-2,4.5031447E-2,-1.0166363E-1,8.077052E-2,-1.0415465E-1,5.3376514E-2,-9.263756E-2],"categories":[],"categories_nodes":[],"categories_segments":[],"categories_sizes":[],"default_left":[0,0,0,0,0,0,0,0,0,0,0,0,0,0,0,0,0,0,0,0,0,0,0,0,0,0,0,0,0,0,0,0,0,0,0,0,0,0,0,0,0,0,0,0,0,0,0,0,0,0,0,0,0,0,0,0,0,0,0,0,0,0,0,0,0,0,0,0,0,0,0,0,0,0,0,0,0,0,0,0,0,0,0,0,0,0,0,0,0,0,0,0,0,0,0,0,0,0,0,0,0,0,0,0,0,0,0],"id":4,"left_children":[1,3,5,7,9,11,13,15,17,19,21,23,25,27,-1,29,31,33,35,37,39,41,43,45,47,49,51,53,55,57,59,61,63,65,67,69,71,73,75,77,79,81,83,85,87,89,91,93,-1,95,97,99,101,103,105,-1,-1,-1,-1,-1,-1,-1,-1,-1,-1,-1,-1,-1,-1,-1,-1,-1,-1,-1,-1,-1,-1,-1,-1,-1,-1,-1,-1,-1,-1,-1,-1,-1,-1,-1,-1,-1,-1,-1,-1,-1,-1,-1,-1,-1,-1,-1,-1,-1,-1,-1,-1],"loss_changes":[6.2231258E4,3.7094957E4,1.6428359E3,2.1599838E4,3.234918E3,1.6798789E3,8.497031E2,1.8749137E4,1.6637305E3,1.036E3,1.1956016E3,3.209619E2,9.9703503E2,2.766172E2,0E0,1.654206E3,1.1862268E4,2.5207246E3,1.7185967E3,1.586836E2,6.1657227E2,3.488722E2,9.3430743E2,2.8608118E2,1.4177148E2,3.112553E2,7.196942E2,1.5197266E2,6.762703E1,3.5574512E2,1.3785969E3,8.05458E3,2.5480288E3,6.882174E2,6.197876E2,1.1932266E3,1.6712506E2,4.674452E2,1.5541992E2,3.399668E2,2.5927637E2,1.8376929E2,1.492457E2,9.537294E2,4.6868042E2,1.0755664E2,1.3139026E2,6.0791504E1,0E0,1.1624078E2,1.8088455E2,8.0280304E1,1.9403625E2,1.7273047E2,1.7705133E2,0E0,0E0,0E0,0E0,0E0,0E0,0E0,0E0,0E0,0E0,0E0,0E0,0E0,0E0,0E0,0E0,0E0,0E0,0E0,0E0,0E0,0E0,0E0,0E0,0E0,0E0,0E0,0E0,0E0,0E0,0E0,0E0,0E0,0E0,0E0,0E0,0E0,0E0,0E0,0E0,0E0,0E0,0E0,0E0,0E0,0E0,0E0,0E0,0E0,0E0,0E0,0E0],"parents":[2147483647,0,0,1,1,2,2,3,3,4,4,5,5,6,6,7,7,8,8,9,9,10,10,11,11,12,12,13,13,15,15,16,16,17,17,18,18,19,19,20,20,21,21,22,22,23,23,24,24,25,25,26,26,27,27,28,28,29,29,30,30,31,31,32,32,33,33,34,34,35,35,36,36,37,37,38,38,39,39,40,40,41,41,42,42,43,43,44,44,45,45,46,46,47,47,49,49,50,50,51,51,52,52,53,53,54,54],"right_children":[2,4,6,8,10,12,14,16,18,20,22,24,26,28,-1,30,32,34,36,38,40,42,44,46,48,50,52,54,56,58,60,62,64,66,68,70,72,74,76,78,80,82,84,86,88,90,92,94,-1,96,98,100,102,104,106,-1,-1,-1,-1,-1,-1,-1,-1,-1,-1,-1,-1,-1,-1,-1,-1,-1,-1,-1,-1,-1,-1,-1,-1,-1,-1,-1,-1,-1,-1,-1,-1,-1,-1,-1,-1,-1,-1,-1,-1,-1,-1,-1,-1,-1,-1,-1,-1,-1,-1,-1,-1],"split_conditions":[2E0,1E0,3E0,1E0,6.8E1,1E0,1.73E2,1E0,2E0,1.1502581E2,1.1502581E2,1E0,2.606907E6,2E0,-8.6977795E-2,1E0,3E0,1.8603241E2,4E1,1E0,1E1,2E0,1.05E2,2.405206E6,3E0,2E0,1.5E2,2.595E1,6.3E1,1E0,2E0,4E0,2.6E2,5E0,8.795E1,1.99E2,4.9E2,1E0,2.5E2,5.74E2,1.338E2,6.25E2,7.999951E1,1.1587767E2,5E0,1.6873E4,1.18853E5,1.19E2,-8.877748E-2,5.95042E5,2E0,2.082942E2,1.89E2,3E0,7.312265E6,-8.5023575E-2,8.016866E-2,-2.285207E-3,6.8391256E-2,2.1779856E-2,8.2896195E-2,6.812674E-3,-3.6169544E-2,5.1902648E-2,-5.8744818E-2,1.4690042E-2,-2.6169896E-2,3.209484E-2,6.722721E-2,5.4805823E-2,5.0095245E-3,-9.1610186E-2,8.396318E-2,4.06454E-2,-8.878979E-2,-7.568573E-2,-5.1314622E-2,-4.9059328E-2,-1.3369406E-2,-6.896775E-2,-4.770119E-2,-6.570074E-2,6.641354E-2,9.2055134E-2,-3.0368254E-2,5.0254982E-2,-3.3570316E-2,6.030516E-2,-8.721112E-3,-8.6498074E-2,5.1190723E-2,6.0733832E-2,-1.817889E-2,-8.484622E-2,7.763222E-2,1.5440456E-2,-7.72532E-2,2.730464E-2,-9.0373054E-2,-8.8870876E-2,7.624524E-2,4.5031447E-2,-1.0166363E-1,8.077052E-2,-1.0415465E-1,5.3376514E-2,-9.263756E-2],"split_indices":[273,135,14,309,172,27,33,27,24,358,358,342,0,187,0,2,21,358,146,110,30,130,328,0,99,259,5,174,343,30,23,30,28,300,329,28,4,127,1,4,174,28,358,358,35,3,338,5,0,0,239,224,5,300,0,0,0,0,0,0,0,0,0,0,0,0,0,0,0,0,0,0,0,0,0,0,0,0,0,0,0,0,0,0,0,0,0,0,0,0,0,0,0,0,0,0,0,0,0,0,0,0,0,0,0,0,0],"split_type":[0,0,0,0,0,0,0,0,0,0,0,0,0,0,0,0,0,0,0,0,0,0,0,0,0,0,0,0,0,0,0,0,0,0,0,0,0,0,0,0,0,0,0,0,0,0,0,0,0,0,0,0,0,0,0,0,0,0,0,0,0,0,0,0,0,0,0,0,0,0,0,0,0,0,0,0,0,0,0,0,0,0,0,0,0,0,0,0,0,0,0,0,0,0,0,0,0,0,0,0,0,0,0,0,0,0,0],"sum_hessian":[1.7993597E5,1.5423764E5,2.5698324E4,1.1756231E5,3.6675332E4,6.603591E3,1.9094732E4,8.70643E4,3.0498016E4,3.1626465E4,5.0488677E3,3.927328E3,2.6762627E3,1.901898E4,7.575244E1,1.3375042E4,7.368925E4,1.42781455E4,1.6219871E4,1.2274465E4,1.9352E4,1.479125E3,3.5697427E3,5.1971875E2,3.4076091E3,5.8272986E2,2.093533E3,1.8981105E4,3.787449E1,5.066467E3,8.308575E3,6.700977E4,6.679477E3,9.064503E3,5.213642E3,1.5971775E4,2.4809572E2,2.8779965E2,1.1986665E4,1.0558114E4,8.793885E3,1.3810054E3,9.8119705E1,2.4975767E3,1.0721661E3,7.667791E1,4.4304086E2,3.3955059E3,1.210326E1,3.532751E2,2.2945477E2,1.2687328E2,1.9666597E3,1.8822521E4,1.5858478E2,3.103317E1,6.841317E0,1.8471693E2,4.88175E3,7.252072E3,1.0565039E3,1.3700226E4,5.330955E4,6.111582E3,5.678953E2,7.8798457E3,1.1846577E3,2.1155366E3,3.0981055E3,1.4661007E4,1.3107678E3,2.3447112E2,1.362461E1,1.16359726E2,1.7143993E2,1.1282755E4,7.0391016E2,9.841381E3,7.1673346E2,6.976561E3,1.8173242E3,1.354925E3,2.6080318E1,5.1468178E1,4.6651527E1,4.0400348E2,2.0935732E3,6.91049E2,3.811171E2,5.882314E1,1.7854773E1,3.8233884E2,6.0702015E1,4.994235E0,3.3905115E3,3.752698E1,3.157481E2,1.9110616E2,3.8348614E1,1.1977507E2,7.0982122E0,1.9447642E3,2.18955E1,1.8810695E4,1.1826339E1,1.3502077E2,2.3564009E1],"tree_param":{"num_deleted":"0","num_feature":"366","num_nodes":"107","size_leaf_vector":"1"}},{"base_weights":[3.5817751E-3,-2.3102838E-1,1.3909559E0,2.9566627E-2,-1.0781516E0,9.786362E-1,1.5342553E0,-2.1050768E-1,7.1697617E-1,-1.1371876E0,3.8338137E-1,1.3660736E0,4.512753E-1,1.5464814E0,-1.3946602E0,8.313102E-1,-3.958649E-1,1.0142428E0,5.316265E-1,-1.3791423E0,-9.8676646E-1,-1.3226637E0,6.3699275E-1,6.610028E-1,1.4726884E0,-6.1621296E-1,7.427139E-1,1.5493177E0,-9.8435774E-2,-8.38759E-2,5.589487E-2,1.1310987E0,4.6688855E-1,-5.528305E-1,5.404806E-1,1.056861E0,-8.703922E-2,3.4519345E-1,1.02141E0,-1.4028115E0,-5.750849E-1,-8.2502633E-1,-1.3041332E0,4.117277E-1,-1.5880059E0,8.4852815E-1,-6.147445E-1,-1.0682863E0,9.8167515E-1,1.4821632E0,-8.029296E-2,-1.0688548E0,3.5688305E-1,-1.5162528E0,8.769041E-1,1.5535626E0,-4.4945994E-1,2.0607464E-2,6.348296E-2,1.6952923E-2,8.096618E-2,2.3337502E-2,-3.4063876E-2,5.555574E-2,-6.991903E-3,5.444632E-2,-2.4287593E-2,1.1935263E-2,5.3102743E-2,2.6384408E-2,6.531792E-2,3.2908057E-3,-7.0809074E-2,7.4521005E-2,-5.7863828E-2,-4.4986572E-2,5.0930735E-3,-4.3968856E-2,-6.9430955E-2,8.5682735E-2,-8.237985E-2,8.198605E-2,-8.728386E-2,5.430147E-2,-3.2037944E-2,2.7450068E-2,-9.1441706E-2,-8.3382E-2,4.324552E-2,5.2586347E-2,-8.9348204E-2,7.43192E-2,-9.3430765E-2,-7.71619E-2,-1.1417163E-2,4.4983845E-2,-8.886584E-2,7.3643155E-2,-8.533874E-2,-1.2450326E-3,4.982927E-2,7.0379056E-2,8.0032095E-2,-8.093005E-2,6.956995E-2],"categories":[],"categories_nodes":[],"categories_segments":[],"categories_sizes":[],"default_left":[0,0,0,0,0,0,0,0,0,0,0,0,0,0,0,0,0,0,0,0,0,0,0,0,0,0,0,0,0,0,0,0,0,0,0,0,0,0,0,0,0,0,0,0,0,0,0,0,0,0,0,0,0,0,0,0,0,0,0,0,0,0,0,0,0,0,0,0,0,0,0,0,0,0,0,0,0,0,0,0,0,0,0,0,0,0,0,0,0,0,0,0,0,0,0,0,0,0,0,0,0,0,0,0,0],"id":5,"left_children":[1,3,5,7,9,11,13,15,17,19,21,23,25,27,29,31,33,35,37,39,41,43,45,47,49,51,53,55,-1,-1,-1,57,59,61,63,65,-1,67,69,71,73,75,77,79,81,83,85,87,89,91,-1,93,95,97,99,101,103,-1,-1,-1,-1,-1,-1,-1,-1,-1,-1,-1,-1,-1,-1,-1,-1,-1,-1,-1,-1,-1,-1,-1,-1,-1,-1,-1,-1,-1,-1,-1,-1,-1,-1,-1,-1,-1,-1,-1,-1,-1,-1,-1,-1,-1,-1,-1,-1],"loss_changes":[5.8369344E4,3.3861367E4,1.5310781E3,1.935873E4,3.1139727E3,1.3667988E3,6.91375E2,1.6789402E4,1.6724492E3,1.2609844E3,6.073424E2,2.8900635E2,8.8273706E2,1.9415625E2,5.911032E1,1.4341621E3,1.084844E4,1.3709072E3,1.7075972E3,2.5219922E2,1.096959E3,8.428946E1,3.2383102E2,2.830357E2,1.0009766E2,2.685127E2,6.767617E2,1.6319922E2,0E0,0E0,0E0,7.1716016E2,8.7287036E2,8.278896E3,4.114174E3,5.685371E2,0E0,1.0340579E3,7.247324E2,2.5364648E2,4.6090338E2,9.814492E2,2.5786426E2,6.9604706E1,8.318332E1,3.7029333E2,2.5121896E2,9.41641E1,8.51774E1,5.0018555E1,0E0,1.6541061E2,2.2635095E2,7.3874725E1,2.270946E2,1.2910156E2,9.127865E1,0E0,0E0,0E0,0E0,0E0,0E0,0E0,0E0,0E0,0E0,0E0,0E0,0E0,0E0,0E0,0E0,0E0,0E0,0E0,0E0,0E0,0E0,0E0,0E0,0E0,0E0,0E0,0E0,0E0,0E0,0E0,0E0,0E0,0E0,0E0,0E0,0E0,0E0,0E0,0E0,0E0,0E0,0E0,0E0,0E0,0E0,0E0,0E0],"parents":[2147483647,0,0,1,1,2,2,3,3,4,4,5,5,6,6,7,7,8,8,9,9,10,10,11,11,12,12,13,13,14,14,15,15,16,16,17,17,18,18,19,19,20,20,21,21,22,22,23,23,24,24,25,25,26,26,27,27,31,31,32,32,33,33,34,34,35,35,37,37,38,38,39,39,40,40,41,41,42,42,43,43,44,44,45,45,46,46,47,47,48,48,49,49,51,51,52,52,53,53,54,54,55,55,56,56],"right_children":[2,4,6,8,10,12,14,16,18,20,22,24,26,28,30,32,34,36,38,40,42,44,46,48,50,52,54,56,-1,-1,-1,58,60,62,64,66,-1,68,70,72,74,76,78,80,82,84,86,88,90,92,-1,94,96,98,100,102,104,-1,-1,-1,-1,-1,-1,-1,-1,-1,-1,-1,-1,-1,-1,-1,-1,-1,-1,-1,-1,-1,-1,-1,-1,-1,-1,-1,-1,-1,-1,-1,-1,-1,-1,-1,-1,-1,-1,-1,-1,-1,-1,-1,-1,-1,-1,-1,-1],"split_conditions":[2E0,1E0,3E0,1E0,2.159E2,1E0,1.96E2,1E0,2E0,1.1502581E2,1.1512394E2,1E0,2.606907E6,6.19E2,1.7286E4,2E0,3E0,4.1E1,5E0,2E0,1.1E1,1.19E2,1.86E2,2.405206E6,3E0,2E0,1.5E2,2E0,-9.8435774E-2,-8.38759E-2,5.589487E-2,2.405206E6,2E0,7E0,1.2E1,1E0,-8.703922E-2,2E0,2E0,1.44E2,1.61E2,5.83E2,1E0,2E0,2.1485825E1,4.44E2,3E0,1.6873E4,4.561107E2,1.8E3,-8.029296E-2,2.17E2,3E0,-1.2E1,2E0,5E0,2E0,2.0607464E-2,6.348296E-2,1.6952923E-2,8.096618E-2,2.3337502E-2,-3.4063876E-2,5.555574E-2,-6.991903E-3,5.444632E-2,-2.4287593E-2,1.1935263E-2,5.3102743E-2,2.6384408E-2,6.531792E-2,3.2908057E-3,-7.0809074E-2,7.4521005E-2,-5.7863828E-2,-4.4986572E-2,5.0930735E-3,-4.3968856E-2,-6.9430955E-2,8.5682735E-2,-8.237985E-2,8.198605E-2,-8.728386E-2,5.430147E-2,-3.2037944E-2,2.7450068E-2,-9.1441706E-2,-8.3382E-2,4.324552E-2,5.2586347E-2,-8.9348204E-2,7.43192E-2,-9.3430765E-2,-7.71619E-2,-1.1417163E-2,4.4983845E-2,-8.886584E-2,7.3643155E-2,-8.533874E-2,-1.2450326E-3,4.982927E-2,7.0379056E-2,8.0032095E-2,-8.093005E-2,6.956995E-2],"split_indices":[273,114,14,309,327,26,33,26,8,358,358,342,0,283,3,2,24,140,298,50,32,4,29,0,308,202,5,187,0,0,0,0,23,29,28,238,0,23,24,5,4,4,38,18,359,330,22,3,227,279,0,346,245,339,245,14,90,0,0,0,0,0,0,0,0,0,0,0,0,0,0,0,0,0,0,0,0,0,0,0,0,0,0,0,0,0,0,0,0,0,0,0,0,0,0,0,0,0,0,0,0,0,0,0,0],"split_type":[0,0,0,0,0,0,0,0,0,0,0,0,0,0,0,0,0,0,0,0,0,0,0,0,0,0,0,0,0,0,0,0,0,0,0,0,0,0,0,0,0,0,0,0,0,0,0,0,0,0,0,0,0,0,0,0,0,0,0,0,0,0,0,0,0,0,0,0,0,0,0,0,0,0,0,0,0,0,0,0,0,0,0,0,0,0,0,0,0,0,0,0,0,0,0,0,0,0,0,0,0,0,0,0,0],"sum_hessian":[1.7932448E5,1.53387E5,2.5937484E4,1.1730285E5,3.6084152E4,6.6915386E3,1.9245945E4,8.694014E4,3.0362713E4,3.46834E4,1.4007529E3,3.8566067E3,2.8349321E3,1.916641E4,7.953374E1,1.3131246E4,7.38089E4,1.1659135E4,1.8703576E4,1.3293096E4,2.13903E4,1.8073466E2,1.2200182E3,5.0751047E2,3.3490962E3,6.0774725E2,2.2271848E3,1.9151518E4,1.489392E1,7.178474E1,7.7490067E0,7.2033574E3,5.927889E3,6.3212574E4,1.059632E4,1.1482132E4,1.7700372E2,1.354823E4,5.155346E3,1.2912249E4,3.80847E2,1.4171604E4,7.2186978E3,2.3908258E1,1.568264E2,1.0439241E3,1.7609421E2,7.902438E1,4.2848608E2,3.3393374E3,9.758828E0,4.147331E2,1.9301416E2,1.2430619E2,2.1028787E3,1.9111152E4,4.0364902E1,1.1645942E3,6.038763E3,5.3371743E3,5.907146E2,7.072241E3,5.6140336E4,5.762363E3,4.833958E3,1.1248607E4,2.3352452E2,1.1797126E4,1.751104E3,1.8876029E3,3.2677434E3,1.1645247E2,1.2795797E4,8.339992E1,2.9744705E2,1.3114623E4,1.0569807E3,1.1995131E3,6.0191846E3,1.4750617E1,9.157641E0,6.86624E0,1.4996016E2,9.00577E2,1.4334703E2,9.019095E1,8.590325E1,6.0427326E1,1.8597063E1,4.1851694E2,9.969143E0,3.3356921E3,3.6453054E0,2.6457266E2,1.5016042E2,1.543393E2,3.8674866E1,7.045057E0,1.1726114E2,2.4647429E2,1.8564044E3,4.6679194E3,1.4443232E4,2.476025E1,1.5604654E1],"tree_param":{"num_deleted":"0","num_feature":"366","num_nodes":"105","size_leaf_vector":"1"}},{"base_weights":[-4.572105E-3,-2.6809418E-1,1.0882488E0,-1.3178373E-2,-1.030894E0,4.768405E-1,1.4445902E0,-2.3109236E-1,6.766273E-1,-1.1206263E0,-1.09396815E-1,6.0772724E-2,9.9431294E-1,1.4870324E0,4.9128485E-1,4.5454386E-1,-4.2369184E-1,4.752483E-1,1.0116054E0,-1.156699E0,-3.0491418E-1,7.3398674E-1,-6.0816693E-1,-2.4462467E-1,4.2309174E-1,3.1353876E-1,1.1357025E0,1.4940264E0,-2.8219923E-1,-9.7585744E-1,1.0414343E0,2.3387034E-1,1.3999827E0,-7.077932E-1,1.5678397E-1,3.556464E-1,1.3766463E0,8.929235E-1,1.4929913E0,-1.3271835E0,-1.0262728E0,-5.426216E-1,7.10822E-1,1.0177155E-1,1.3578602E0,-9.00108E-1,7.110166E-1,-1.1309335E0,-8.694889E-2,5.9612435E-1,-4.4517094E-1,-2.60189E-1,1.1836369E0,1.2170029E0,-3.0247492E-1,1.4983464E0,-5.9498084E-1,8.553333E-1,-1.4243964E0,-1.5692275E0,8.321745E-1,1.2067776E0,-8.811443E-2,3.622602E-2,-1.4421388E-2,7.239985E-2,-3.940672E-2,-2.2888267E-3,-4.2131204E-2,2.0294549E-2,-2.7924627E-2,-7.1857083E-3,3.384894E-2,3.0859431E-2,7.7383496E-2,2.7737876E-2,5.6360837E-2,-9.460223E-2,7.56089E-2,-6.752562E-2,-1.841591E-2,-6.3677065E-2,-4.568242E-2,1.5726265E-2,-4.397304E-2,-1.8934896E-2,7.7944435E-2,1.0925317E-2,-9.346079E-2,-5.4866333E-2,7.633207E-2,-5.1772196E-2,5.4332625E-2,-6.595855E-2,5.680099E-2,-9.266618E-2,-6.967665E-3,-1.4469795E-2,3.0393584E-2,5.273217E-2,6.6890093E-3,-4.209555E-2,3.129102E-2,3.4018192E-2,-2.6856959E-2,6.4330354E-2,-8.626143E-2,6.136911E-2,-9.9404715E-2,-4.0402424E-2,6.949874E-2,6.445079E-2,7.673071E-2,-8.306455E-2,6.0395654E-2,-8.0538444E-2,6.702619E-2,-9.870758E-2,6.314018E-2,-9.0577915E-2,1.532457E-5,7.786023E-2,-8.367945E-2,7.128489E-2,-1.3218275E-2],"categories":[],"categories_nodes":[],"categories_segments":[],"categories_sizes":[],"default_left":[0,0,0,0,0,0,0,0,0,0,0,0,0,0,0,0,0,0,0,0,0,0,0,0,0,0,0,0,0,0,0,0,0,0,0,0,0,0,0,0,0,0,0,0,0,0,0,0,0,0,0,0,0,0,0,0,0,0,0,0,0,0,0,0,0,0,0,0,0,0,0,0,0,0,0,0,0,0,0,0,0,0,0,0,0,0,0,0,0,0,0,0,0,0,0,0,0,0,0,0,0,0,0,0,0,0,0,0,0,0,0,0,0,0,0,0,0,0,0,0,0,0,0,0,0],"id":6,"left_children":[1,3,5,7,9,11,13,15,17,19,21,23,25,27,29,31,33,35,37,39,41,43,45,47,49,51,53,55,57,59,61,63,65,67,69,71,73,75,77,79,81,83,85,87,89,91,93,95,97,99,101,103,105,107,109,111,113,115,117,119,121,123,-1,-1,-1,-1,-1,-1,-1,-1,-1,-1,-1,-1,-1,-1,-1,-1,-1,-1,-1,-1,-1,-1,-1,-1,-1,-1,-1,-1,-1,-1,-1,-1,-1,-1,-1,-1,-1,-1,-1,-1,-1,-1,-1,-1,-1,-1,-1,-1,-1,-1,-1,-1,-1,-1,-1,-1,-1,-1,-1,-1,-1,-1,-1],"loss_changes":[5.1061492E4,2.777884E4,7.5046875E3,1.6095749E4,2.9586992E3,2.7313093E3,8.7983984E2,1.0745602E4,1.7335762E3,9.59125E2,1.3365889E3,7.7832935E2,5.4386426E2,2.582422E2,7.509674E2,3.7228484E3,1.0476647E4,1.7305256E3,5.500215E2,6.9298047E2,3.3413336E2,4.656125E2,7.695393E2,5.3332306E2,4.836034E2,4.8638458E2,5.477241E2,1.881836E2,1.08907486E2,2.7370612E2,3.156112E2,3.7082898E3,3.5591748E2,3.8071191E3,3.7199167E3,2.274919E3,2.4329688E2,6.129595E2,1.26729004E2,3.021875E2,4.9164453E2,3.238467E2,2.4320352E2,1.3560081E2,2.4793079E2,4.4078943E2,3.141308E2,4.126258E2,4.561504E2,5.686346E2,2.2792279E2,1.5343018E2,1.18166504E2,1.4984473E2,2.1612868E2,1.5526172E2,8.5718956E1,5.259447E1,6.414379E1,7.284277E1,1.17774345E2,2.0622827E2,0E0,0E0,0E0,0E0,0E0,0E0,0E0,0E0,0E0,0E0,0E0,0E0,0E0,0E0,0E0,0E0,0E0,0E0,0E0,0E0,0E0,0E0,0E0,0E0,0E0,0E0,0E0,0E0,0E0,0E0,0E0,0E0,0E0,0E0,0E0,0E0,0E0,0E0,0E0,0E0,0E0,0E0,0E0,0E0,0E0,0E0,0E0,0E0,0E0,0E0,0E0,0E0,0E0,0E0,0E0,0E0,0E0,0E0,0E0,0E0,0E0,0E0,0E0],"parents":[2147483647,0,0,1,1,2,2,3,3,4,4,5,5,6,6,7,7,8,8,9,9,10,10,11,11,12,12,13,13,14,14,15,15,16,16,17,17,18,18,19,19,20,20,21,21,22,22,23,23,24,24,25,25,26,26,27,27,28,28,29,29,30,30,31,31,32,32,33,33,34,34,35,35,36,36,37,37,38,38,39,39,40,40,41,41,42,42,43,43,44,44,45,45,46,46,47,47,48,48,49,49,50,50,51,51,52,52,53,53,54,54,55,55,56,56,57,57,58,58,59,59,60,60,61,61],"right_children":[2,4,6,8,10,12,14,16,18,20,22,24,26,28,30,32,34,36,38,40,42,44,46,48,50,52,54,56,58,60,62,64,66,68,70,72,74,76,78,80,82,84,86,88,90,92,94,96,98,100,102,104,106,108,110,112,114,116,118,120,122,124,-1,-1,-1,-1,-1,-1,-1,-1,-1,-1,-1,-1,-1,-1,-1,-1,-1,-1,-1,-1,-1,-1,-1,-1,-1,-1,-1,-1,-1,-1,-1,-1,-1,-1,-1,-1,-1,-1,-1,-1,-1,-1,-1,-1,-1,-1,-1,-1,-1,-1,-1,-1,-1,-1,-1,-1,-1,-1,-1,-1,-1,-1,-1],"split_conditions":[4.5495E0,1E0,3E0,1E0,1.05E2,2E0,1E0,1E0,4E0,1E0,1.3E1,1E0,1E0,3.33E2,1E0,2E0,1.5E2,2E0,3E0,5.9466E1,1.0344E4,3E0,7.945E3,2E0,1.5128E4,2E0,5E0,2E0,5.374E3,1E0,2.56E2,2E0,1E2,3E0,1.4E1,1.8520927E2,5E0,1.868307E2,6.122E0,3.00828E1,1E0,1E0,3.5E1,1E0,7.7E1,2E0,2.765E2,2.26E2,1E0,2.22E2,1.1395E2,4.2E1,4.08312E2,1.5E1,2E0,4E0,2E0,4.5E1,4E0,4.41E3,3.095E1,9.026E3,-8.811443E-2,3.622602E-2,-1.4421388E-2,7.239985E-2,-3.940672E-2,-2.2888267E-3,-4.2131204E-2,2.0294549E-2,-2.7924627E-2,-7.1857083E-3,3.384894E-2,3.0859431E-2,7.7383496E-2,2.7737876E-2,5.6360837E-2,-9.460223E-2,7.56089E-2,-6.752562E-2,-1.841591E-2,-6.3677065E-2,-4.568242E-2,1.5726265E-2,-4.397304E-2,-1.8934896E-2,7.7944435E-2,1.0925317E-2,-9.346079E-2,-5.4866333E-2,7.633207E-2,-5.1772196E-2,5.4332625E-2,-6.595855E-2,5.680099E-2,-9.266618E-2,-6.967665E-3,-1.4469795E-2,3.0393584E-2,5.273217E-2,6.6890093E-3,-4.209555E-2,3.129102E-2,3.4018192E-2,-2.6856959E-2,6.4330354E-2,-8.626143E-2,6.136911E-2,-9.9404715E-2,-4.0402424E-2,6.949874E-2,6.445079E-2,7.673071E-2,-8.306455E-2,6.0395654E-2,-8.0538444E-2,6.702619E-2,-9.870758E-2,6.314018E-2,-9.0577915E-2,1.532457E-5,7.786023E-2,-8.367945E-2,7.128489E-2,-1.3218275E-2],"split_indices":[279,114,14,309,327,272,143,2,298,146,35,356,342,29,56,89,1,20,106,1,360,24,360,13,3,15,15,187,3,199,29,8,29,30,28,359,14,359,1,326,79,106,12,311,1,70,325,7,344,7,1,343,227,30,266,14,275,280,202,360,174,3,0,0,0,0,0,0,0,0,0,0,0,0,0,0,0,0,0,0,0,0,0,0,0,0,0,0,0,0,0,0,0,0,0,0,0,0,0,0,0,0,0,0,0,0,0,0,0,0,0,0,0,0,0,0,0,0,0,0,0,0,0,0,0],"split_type":[0,0,0,0,0,0,0,0,0,0,0,0,0,0,0,0,0,0,0,0,0,0,0,0,0,0,0,0,0,0,0,0,0,0,0,0,0,0,0,0,0,0,0,0,0,0,0,0,0,0,0,0,0,0,0,0,0,0,0,0,0,0,0,0,0,0,0,0,0,0,0,0,0,0,0,0,0,0,0,0,0,0,0,0,0,0,0,0,0,0,0,0,0,0,0,0,0,0,0,0,0,0,0,0,0,0,0,0,0,0,0,0,0,0,0,0,0,0,0,0,0,0,0,0,0],"sum_hessian":[1.7730562E5,1.4285777E5,3.4447863E4,1.07075734E5,3.5782023E4,1.2685131E4,2.1762734E4,8.1370836E4,2.57049E4,3.2606682E4,3.1753418E3,7.0321387E3,5.652992E3,2.0834596E4,9.281375E2,1.7844547E4,6.352629E4,1.605533E4,9.64957E3,3.1225406E4,1.3812754E3,1.1798429E3,1.9954989E3,3.8159841E3,3.2161543E3,9.7271216E2,4.6802803E3,2.0752713E4,8.188329E1,2.5290771E2,6.752298E2,1.4468681E4,3.3758665E3,4.265131E4,2.087498E4,1.4175809E4,1.8795214E3,7.7433613E3,1.9062094E3,1.3530303E4,1.7695104E4,1.119703E3,2.6157242E2,5.865815E2,5.932614E2,1.6341681E3,3.6133078E2,5.75406E2,3.2405781E3,2.6819856E3,5.3416876E2,5.866116E2,3.8610065E2,4.430005E3,2.5027513E2,2.0710168E4,4.2544716E1,4.115125E1,4.073204E1,1.905154E2,6.2392323E1,6.38165E2,3.7064777E1,7.4601665E3,7.0085137E3,3.3037107E3,7.215568E1,7.217056E3,3.543425E4,1.5483148E4,5.3918325E3,5.550583E3,8.625226E3,3.463055E2,1.5332158E3,3.1705427E3,4.572819E3,1.0193446E1,1.8960159E3,1.3208535E4,3.2176764E2,5.534254E3,1.216085E4,3.159016E2,8.0380133E2,1.1473048E2,1.4684195E2,5.5462225E2,3.1959229E1,3.780639E1,5.55455E2,1.530398E3,1.0377017E2,6.2183594E1,2.991472E2,3.3238586E2,2.4302019E2,2.5098708E3,7.307073E2,1.3459199E3,1.3360657E3,3.8993457E2,1.4423419E2,1.3310747E2,4.535041E2,3.7343906E2,1.2661572E1,4.4163203E3,1.3684627E1,1.9311101E2,5.7164124E1,3.0636936E3,1.7646475E4,2.6782764E1,1.5761951E1,6.3838506E0,3.47674E1,3.403451E1,6.697528E0,1.6490103E2,2.561437E1,4.8684315E1,1.3708009E1,5.55528E2,8.2636986E1],"tree_param":{"num_deleted":"0","num_feature":"366","num_nodes":"125","size_leaf_vector":"1"}},{"base_weights":[-4.0513636E-3,-2.2024235E-1,1.300336E0,1.827848E-2,-9.984359E-1,1.0054079E0,1.4711894E0,-2.0365606E-1,6.5285176E-1,-1.1018384E0,-3.5155752E-1,4.0937048E-1,1.1432388E0,1.4817579E0,-8.46514E-2,7.6909643E-1,-3.7651473E-1,9.3032235E-1,4.8178846E-1,-1.333722E0,-9.5668066E-1,6.861079E-1,-5.891932E-1,9.858724E-1,-5.815168E-1,1.2640938E0,6.244893E-1,1.4880942E0,1.4760077E-1,2.536113E-1,9.958208E-1,-5.165253E-1,4.7755745E-1,9.750682E-1,-1.5597688E0,2.0539992E-1,7.2496516E-1,-1.3583279E0,-5.2315533E-1,-8.2093173E-1,-1.1875755E0,-6.3635564E-1,1.0878729E0,-7.604309E-1,5.46742E-1,1.2253118E0,-4.218236E-2,-2.2293967E-1,-1.5781192E0,-3.4931157E-2,1.2881793E0,8.819022E-2,1.1400039E0,1.4923424E0,-2.7737266E-1,-9.565845E-2,1.2854371E0,-7.657571E-3,2.9265607E-2,4.30362E-2,7.491398E-2,2.2652298E-2,-3.2048065E-2,5.2887022E-2,-7.873035E-3,5.029703E-2,-2.9102592E-2,8.329716E-3,-8.78358E-2,-9.623694E-3,2.2276262E-2,4.1839834E-2,-4.0624075E-2,-1.847502E-4,-6.848109E-2,4.0903628E-2,-7.4047826E-2,-4.345597E-2,-5.510723E-3,-6.0160972E-2,2.227029E-2,-8.787901E-2,-6.319043E-3,6.0171433E-2,-5.751195E-2,-8.373337E-3,-4.8624016E-2,-8.2918495E-2,4.4326432E-2,6.811856E-2,3.6102485E-2,-1.0115E-1,1.7225254E-2,-9.405907E-2,3.6970673E-3,-9.4587065E-2,5.9960183E-2,-5.0658107E-2,6.369168E-2,6.520685E-2,-1.715147E-2,-7.324257E-2,2.2057375E-2,6.001104E-2,-8.86331E-2,7.467728E-2,-7.9139546E-2,-1.104309E-1,7.711398E-2,-7.326754E-2,7.3663175E-2],"categories":[],"categories_nodes":[],"categories_segments":[],"categories_sizes":[],"default_left":[0,0,0,0,0,0,0,0,0,0,0,0,0,0,0,0,0,0,0,0,0,0,0,0,0,0,0,0,0,0,0,0,0,0,0,0,0,0,0,0,0,0,0,0,0,0,0,0,0,0,0,0,0,0,0,0,0,0,0,0,0,0,0,0,0,0,0,0,0,0,0,0,0,0,0,0,0,0,0,0,0,0,0,0,0,0,0,0,0,0,0,0,0,0,0,0,0,0,0,0,0,0,0,0,0,0,0,0,0,0,0],"id":7,"left_children":[1,3,5,7,9,11,13,15,17,19,21,23,25,27,-1,29,31,33,35,37,39,41,43,45,47,49,51,53,55,57,59,61,63,65,67,69,71,73,75,77,79,81,83,85,87,89,91,93,95,97,99,101,103,105,107,-1,109,-1,-1,-1,-1,-1,-1,-1,-1,-1,-1,-1,-1,-1,-1,-1,-1,-1,-1,-1,-1,-1,-1,-1,-1,-1,-1,-1,-1,-1,-1,-1,-1,-1,-1,-1,-1,-1,-1,-1,-1,-1,-1,-1,-1,-1,-1,-1,-1,-1,-1,-1,-1,-1,-1],"loss_changes":[4.9666605E4,2.8043504E4,1.2603164E3,1.6286231E4,2.3704336E3,7.5438086E2,5.3266016E2,1.4406781E4,1.4218203E3,1.0273242E3,1.2053076E3,9.872728E2,4.6703613E2,1.3336328E2,0E0,1.5106763E3,8.699644E3,1.2747178E3,1.245856E3,2.3388672E2,5.88209E2,4.8470657E2,7.738782E2,2.6893677E2,2.2690558E2,1.8937207E2,3.9026544E2,1.1835547E2,1.8019957E2,5.331012E2,6.081748E2,7.5413926E3,3.7754126E3,5.402324E2,6.900595E1,8.2919696E2,1.6962056E3,1.7463867E2,4.484795E2,4.0543262E2,1.7827441E2,1.2151136E2,1.8218256E2,4.3437256E2,3.9219806E2,6.0130737E1,1.5949269E2,2.3094609E2,1.4869101E2,1.4356384E2,1.550957E2,3.805826E2,1.2838318E2,6.041797E1,1.390318E2,0E0,2.7700325E1,0E0,0E0,0E0,0E0,0E0,0E0,0E0,0E0,0E0,0E0,0E0,0E0,0E0,0E0,0E0,0E0,0E0,0E0,0E0,0E0,0E0,0E0,0E0,0E0,0E0,0E0,0E0,0E0,0E0,0E0,0E0,0E0,0E0,0E0,0E0,0E0,0E0,0E0,0E0,0E0,0E0,0E0,0E0,0E0,0E0,0E0,0E0,0E0,0E0,0E0,0E0,0E0,0E0,0E0],"parents":[2147483647,0,0,1,1,2,2,3,3,4,4,5,5,6,6,7,7,8,8,9,9,10,10,11,11,12,12,13,13,15,15,16,16,17,17,18,18,19,19,20,20,21,21,22,22,23,23,24,24,25,25,26,26,27,27,28,28,29,29,30,30,31,31,32,32,33,33,34,34,35,35,36,36,37,37,38,38,39,39,40,40,41,41,42,42,43,43,44,44,45,45,46,46,47,47,48,48,49,49,50,50,51,51,52,52,53,53,54,54,56,56],"right_children":[2,4,6,8,10,12,14,16,18,20,22,24,26,28,-1,30,32,34,36,38,40,42,44,46,48,50,52,54,56,58,60,62,64,66,68,70,72,74,76,78,80,82,84,86,88,90,92,94,96,98,100,102,104,106,108,-1,110,-1,-1,-1,-1,-1,-1,-1,-1,-1,-1,-1,-1,-1,-1,-1,-1,-1,-1,-1,-1,-1,-1,-1,-1,-1,-1,-1,-1,-1,-1,-1,-1,-1,-1,-1,-1,-1,-1,-1,-1,-1,-1,-1,-1,-1,-1,-1,-1,-1,-1,-1,-1,-1,-1],"split_conditions":[2E0,1E0,3E0,1E0,6.8E1,2E0,6.19E2,1E0,2E0,1.1502581E2,4E0,1E0,3E0,4E0,-8.46514E-2,1E0,3E0,1.35E3,2E0,3.2085E2,1.2E1,1.2632388E2,1.0344E4,3E0,1.7E1,3.56685E1,1E0,7.80796E1,7E0,1.5995E2,2E0,7E0,8E0,1E0,4.153E3,1.12723915E2,2.04E2,1.44E2,1E0,5.83E2,5.8E1,7.5E1,9.42E2,1E0,4E0,1.2212123E2,2.69E2,5.6E1,7.874867E2,8E0,1.91E2,1.79E2,1.75E3,2E0,3E0,-9.565845E-2,8.6E1,-7.657571E-3,2.9265607E-2,4.30362E-2,7.491398E-2,2.2652298E-2,-3.2048065E-2,5.2887022E-2,-7.873035E-3,5.029703E-2,-2.9102592E-2,8.329716E-3,-8.78358E-2,-9.623694E-3,2.2276262E-2,4.1839834E-2,-4.0624075E-2,-1.847502E-4,-6.848109E-2,4.0903628E-2,-7.4047826E-2,-4.345597E-2,-5.510723E-3,-6.0160972E-2,2.227029E-2,-8.787901E-2,-6.319043E-3,6.0171433E-2,-5.751195E-2,-8.373337E-3,-4.8624016E-2,-8.2918495E-2,4.4326432E-2,6.811856E-2,3.6102485E-2,-1.0115E-1,1.7225254E-2,-9.405907E-2,3.6970673E-3,-9.4587065E-2,5.9960183E-2,-5.0658107E-2,6.369168E-2,6.520685E-2,-1.715147E-2,-7.324257E-2,2.2057375E-2,6.001104E-2,-8.86331E-2,7.467728E-2,-7.9139546E-2,-1.104309E-1,7.711398E-2,-7.326754E-2,7.3663175E-2],"split_indices":[273,135,273,309,172,15,283,27,8,358,29,26,234,239,0,17,24,217,24,174,32,358,360,186,13,358,98,221,240,1,24,29,28,238,3,358,29,5,64,4,12,324,327,106,6,358,9,360,359,25,29,5,278,143,262,0,351,0,0,0,0,0,0,0,0,0,0,0,0,0,0,0,0,0,0,0,0,0,0,0,0,0,0,0,0,0,0,0,0,0,0,0,0,0,0,0,0,0,0,0,0,0,0,0,0,0,0,0,0,0,0],"split_type":[0,0,0,0,0,0,0,0,0,0,0,0,0,0,0,0,0,0,0,0,0,0,0,0,0,0,0,0,0,0,0,0,0,0,0,0,0,0,0,0,0,0,0,0,0,0,0,0,0,0,0,0,0,0,0,0,0,0,0,0,0,0,0,0,0,0,0,0,0,0,0,0,0,0,0,0,0,0,0,0,0,0,0,0,0,0,0,0,0,0,0,0,0,0,0,0,0,0,0,0,0,0,0,0,0,0,0,0,0,0,0],"sum_hessian":[1.761227E5,1.5108284E5,2.503985E4,1.1563961E5,3.5443234E4,9.1873955E3,1.5852454E4,8.5676086E4,2.9963525E4,3.0557898E4,4.8853345E3,1.7262687E3,7.461127E3,1.5800213E4,5.224088E1,1.292695E4,7.274913E4,1.1425892E4,1.8537633E4,1.1761377E4,1.8796521E4,9.0996655E2,3.9753677E3,1.0913324E3,6.349362E2,6.050162E3,1.4109648E3,1.5725412E4,7.480131E1,3.9494714E3,8.9774795E3,6.25032E4,1.0245938E4,1.1224796E4,2.0109615E2,8.677195E3,9.8604375E3,1.1414208E4,3.4716882E2,1.1840025E4,6.956497E3,2.1189659E2,6.9807E2,3.454888E3,5.2047974E2,8.8501575E2,2.0631671E2,4.6783356E2,1.6710265E2,1.10127144E2,5.940035E3,6.9211566E2,7.188492E2,1.5687818E4,3.759362E1,2.6366581E1,4.8434727E1,1.7742535E3,2.175218E3,7.0773066E3,1.9001725E3,7.109017E3,5.539418E4,5.353792E3,4.8921465E3,1.100692E4,2.178755E2,2.0608059E1,1.8048808E2,3.2659321E3,5.4112627E3,9.192263E3,6.681752E2,9.4387634E1,1.131982E4,1.4469519E2,2.0247363E2,1.1088019E4,7.520062E2,6.890747E3,6.575027E1,6.548207E1,1.464145E2,6.642371E2,3.383288E1,9.105271E2,2.5443608E3,6.897465E1,4.5150507E2,6.942385E2,1.907772E2,3.30068E1,1.7330992E2,7.022915E1,3.9760443E2,1.5043413E2,1.6668526E1,6.3151024E1,4.6976116E1,5.8826865E3,5.7348415E1,1.2758422E2,5.6453143E2,7.048646E2,1.39845495E1,1.5682196E4,5.621678E0,1.8133886E1,1.9459736E1,2.6610503E0,4.5773678E1],"tree_param":{"num_deleted":"0","num_feature":"366","num_nodes":"111","size_leaf_vector":"1"}},{"base_weights":[4.366991E-3,-2.023807E-1,1.2660445E0,2.7660782E-2,-9.6542156E-1,8.8516897E-1,1.4014393E0,-1.7793395E-1,6.239584E-1,-1.029274E0,3.555054E-1,1.262895E0,3.449404E-1,1.4129834E0,-7.880939E-2,7.6215774E-1,-3.483832E-1,5.486186E-1,1.2588284E0,-1.2617426E0,-8.8665944E-1,-1.2948974E0,6.0556865E-1,5.789646E-1,1.3656881E0,-6.729967E-1,6.215276E-1,1.4232445E0,5.668749E-1,1.171776E0,5.092494E-1,-4.4088158E-1,8.6172456E-1,3.8565806E-1,9.9002963E-1,1.3234006E0,-8.4018207E-1,9.1473326E-2,-1.2744309E0,-9.282228E-1,4.724203E-1,2.0094009E-1,-1.5127658E0,8.798641E-1,-3.6571655E-1,-1.3168925E0,8.9293796E-1,1.3744919E0,-7.828452E-2,-1.1746718E0,-1.03830986E-1,-1.3068144E0,7.515237E-1,1.4255478E0,-9.6898936E-2,-9.3489595E-2,8.1709915E-1,-2.9288635E-3,6.1277505E-2,1.8068783E-2,7.514272E-2,1.8129965E-2,-2.8073076E-2,5.0965946E-2,-4.7765817E-2,2.084609E-2,-8.793149E-2,5.2874535E-2,-4.035873E-3,6.7064665E-2,-1.06265604E-1,-9.0049855E-2,5.99292E-2,8.186444E-2,-8.1853665E-2,-7.27579E-2,-5.9720404E-2,-3.76844E-2,-5.7871867E-2,4.0919065E-2,-4.452669E-2,6.3134424E-2,-7.806193E-2,7.642704E-2,-8.181202E-2,5.32367E-2,-6.335069E-2,5.7365697E-2,-5.6071218E-2,6.385737E-2,-8.133139E-2,6.1510026E-2,1.4280614E-4,6.896918E-2,-9.3197875E-2,6.946159E-4,-7.620033E-2,-3.6985125E-2,2.7004227E-2,3.526018E-2,-8.247403E-2,2.6893351E-2,5.9289534E-2,6.120157E-2,7.2967716E-2,-8.62521E-2,5.0477922E-2],"categories":[],"categories_nodes":[],"categories_segments":[],"categories_sizes":[],"default_left":[0,0,0,0,0,0,0,0,0,0,0,0,0,0,0,0,0,0,0,0,0,0,0,0,0,0,0,0,0,0,0,0,0,0,0,0,0,0,0,0,0,0,0,0,0,0,0,0,0,0,0,0,0,0,0,0,0,0,0,0,0,0,0,0,0,0,0,0,0,0,0,0,0,0,0,0,0,0,0,0,0,0,0,0,0,0,0,0,0,0,0,0,0,0,0,0,0,0,0,0,0,0,0,0,0,0,0],"id":8,"left_children":[1,3,5,7,9,11,13,15,17,19,21,23,25,27,-1,29,31,33,35,37,39,41,43,45,47,49,51,53,55,57,59,61,63,65,67,69,71,73,75,77,79,81,83,85,87,89,91,93,-1,95,97,99,101,103,-1,-1,105,-1,-1,-1,-1,-1,-1,-1,-1,-1,-1,-1,-1,-1,-1,-1,-1,-1,-1,-1,-1,-1,-1,-1,-1,-1,-1,-1,-1,-1,-1,-1,-1,-1,-1,-1,-1,-1,-1,-1,-1,-1,-1,-1,-1,-1,-1,-1,-1,-1,-1],"loss_changes":[4.5825742E4,2.649546E4,1.2743047E3,1.421876E4,2.949502E3,1.3238159E3,6.294219E2,1.3819994E4,1.4216113E3,1.1046602E3,6.6647876E2,2.6768506E2,7.526445E2,1.569961E2,0E0,1.370751E3,8.172449E3,1.9118262E3,4.2855127E2,2.1781836E2,1.1683281E3,6.95755E1,3.7369366E2,2.9921854E2,8.781006E1,1.6301172E2,5.2776E2,1.4180469E2,1.3532922E2,3.3434424E2,1.2022183E3,6.571329E3,1.4856396E3,1.302428E3,5.177988E2,1.9166699E2,1.8772821E2,3.1988687E2,1.799336E2,8.017246E2,2.9033466E2,5.418281E1,7.221777E1,4.3520068E2,3.5497223E2,5.9560616E1,1.2912637E2,5.5001953E1,0E0,1.26065094E2,1.10440506E2,9.291684E1,1.8208545E2,1.2047266E2,0E0,0E0,9.945076E1,0E0,0E0,0E0,0E0,0E0,0E0,0E0,0E0,0E0,0E0,0E0,0E0,0E0,0E0,0E0,0E0,0E0,0E0,0E0,0E0,0E0,0E0,0E0,0E0,0E0,0E0,0E0,0E0,0E0,0E0,0E0,0E0,0E0,0E0,0E0,0E0,0E0,0E0,0E0,0E0,0E0,0E0,0E0,0E0,0E0,0E0,0E0,0E0,0E0,0E0],"parents":[2147483647,0,0,1,1,2,2,3,3,4,4,5,5,6,6,7,7,8,8,9,9,10,10,11,11,12,12,13,13,15,15,16,16,17,17,18,18,19,19,20,20,21,21,22,22,23,23,24,24,25,25,26,26,27,27,28,28,29,29,30,30,31,31,32,32,33,33,34,34,35,35,36,36,37,37,38,38,39,39,40,40,41,41,42,42,43,43,44,44,45,45,46,46,47,47,49,49,50,50,51,51,52,52,53,53,56,56],"right_children":[2,4,6,8,10,12,14,16,18,20,22,24,26,28,-1,30,32,34,36,38,40,42,44,46,48,50,52,54,56,58,60,62,64,66,68,70,72,74,76,78,80,82,84,86,88,90,92,94,-1,96,98,100,102,104,-1,-1,106,-1,-1,-1,-1,-1,-1,-1,-1,-1,-1,-1,-1,-1,-1,-1,-1,-1,-1,-1,-1,-1,-1,-1,-1,-1,-1,-1,-1,-1,-1,-1,-1,-1,-1,-1,-1,-1,-1,-1,-1,-1,-1,-1,-1,-1,-1,-1,-1,-1,-1],"split_conditions":[2E0,1E0,3E0,1E0,2.0995E2,1E0,2E2,1E0,4E0,1.1502581E2,1.1512394E2,1E0,2.606907E6,1E0,-7.880939E-2,1E0,4E0,1.559E2,3E0,1.44E2,3.5351E1,1.19E2,1.82E2,2.405206E6,3E0,1E0,1.5E2,3E0,2E0,7E0,2E0,1.2E1,2.65E2,3.1E1,8.6E1,1.438E1,1.27E2,3.6E2,1.48E2,3.2E1,1.66E2,2E0,2.1485825E1,7.45E2,1.2178179E2,3.38727E5,2E0,1.8E3,-7.828452E-2,8.53052E5,2E0,1.04E2,3.53457E1,4E0,-9.6898936E-2,-9.3489595E-2,1E0,-2.9288635E-3,6.1277505E-2,1.8068783E-2,7.514272E-2,1.8129965E-2,-2.8073076E-2,5.0965946E-2,-4.7765817E-2,2.084609E-2,-8.793149E-2,5.2874535E-2,-4.035873E-3,6.7064665E-2,-1.06265604E-1,-9.0049855E-2,5.99292E-2,8.186444E-2,-8.1853665E-2,-7.27579E-2,-5.9720404E-2,-3.76844E-2,-5.7871867E-2,4.0919065E-2,-4.452669E-2,6.3134424E-2,-7.806193E-2,7.642704E-2,-8.181202E-2,5.32367E-2,-6.335069E-2,5.7365697E-2,-5.6071218E-2,6.385737E-2,-8.133139E-2,6.1510026E-2,1.4280614E-4,6.896918E-2,-9.3197875E-2,6.946159E-4,-7.620033E-2,-3.6985125E-2,2.7004227E-2,3.526018E-2,-8.247403E-2,2.6893351E-2,5.9289534E-2,6.120157E-2,7.2967716E-2,-8.62521E-2,5.0477922E-2],"split_indices":[273,114,14,309,327,27,33,27,23,358,358,342,0,143,0,2,21,330,300,5,326,4,35,0,308,364,5,300,13,30,23,29,29,146,34,281,330,4,360,31,33,18,359,329,358,0,140,279,0,0,259,7,225,14,0,0,203,0,0,0,0,0,0,0,0,0,0,0,0,0,0,0,0,0,0,0,0,0,0,0,0,0,0,0,0,0,0,0,0,0,0,0,0,0,0,0,0,0,0,0,0,0,0,0,0,0,0],"split_type":[0,0,0,0,0,0,0,0,0,0,0,0,0,0,0,0,0,0,0,0,0,0,0,0,0,0,0,0,0,0,0,0,0,0,0,0,0,0,0,0,0,0,0,0,0,0,0,0,0,0,0,0,0,0,0,0,0,0,0,0,0,0,0,0,0,0,0,0,0,0,0,0,0,0,0,0,0,0,0,0,0,0,0,0,0,0,0,0,0,0,0,0,0,0,0,0,0,0,0,0,0,0,0,0,0,0,0],"sum_hessian":[1.7567727E5,1.5094342E5,2.4733854E4,1.1597903E5,3.4964387E4,6.488572E3,1.8245281E4,8.624405E4,2.9734988E4,3.3352383E4,1.612003E3,3.8178245E3,2.670747E3,1.8175342E4,6.993956E1,1.3236469E4,7.300758E4,2.6582334E4,3.1526533E3,1.2678292E4,2.067409E4,2.1155751E2,1.4004456E3,4.9970273E2,3.3181218E3,5.703239E2,2.100423E3,1.7956893E4,2.1844975E2,5.051412E3,8.185057E3,6.782388E4,5.1836953E3,1.9416139E4,7.1661963E3,3.0589207E3,9.373262E1,1.17714386E2,1.2560578E4,2.0060906E4,6.131846E2,2.6905783E1,1.8465172E2,1.0921199E3,3.083256E2,7.054407E1,4.2915866E2,3.3087158E3,9.4060135E0,3.0256906E2,2.6775482E2,1.320822E2,1.968341E3,1.794517E4,1.1721913E1,1.974098E1,1.9870877E2,2.1152881E2,4.8398833E3,7.125905E3,1.0591522E3,8.850022E3,5.897386E4,4.7703916E3,4.133034E2,1.9137912E4,2.7822534E2,6.7414707E3,4.247257E2,3.0437402E3,1.5180405E1,6.378779E1,2.994483E1,6.2169685E1,5.55447E1,3.8495044E3,8.711073E3,1.139131E4,8.669596E3,4.893672E2,1.23817375E2,1.6966545E1,9.939238E0,6.7602544E0,1.7789146E2,1.0059966E3,8.612336E1,1.0252942E2,2.0579616E2,7.191524E0,6.3352543E1,3.1095282E2,1.1820584E2,3.3042986E3,4.4171143E0,6.8946884E1,2.3362218E2,1.3464404E2,1.331108E2,1.906734E1,1.1301486E2,1.3207693E3,6.475717E2,2.5833452E3,1.5361824E4,1.3424543E1,1.8528423E2],"tree_param":{"num_deleted":"0","num_feature":"366","num_nodes":"107","size_leaf_vector":"1"}},{"base_weights":[4.770271E-3,-1.7365459E-1,1.2829852E0,4.3433316E-2,-9.13447E-1,9.0358645E-1,1.4055136E0,-1.5634714E-1,6.132873E-1,-1.0082226E0,-9.504662E-2,1.2334075E0,4.3973997E-1,1.4094774E0,-6.932539E-1,7.367686E-1,-3.1960234E-1,5.4554105E-1,1.3547064E0,-1.2213387E0,-8.758055E-1,-1.1902905E0,1.07754245E-1,6.3427514E-1,1.3492771E0,-8.9313304E-1,6.836677E-1,1.4110703E0,-9.907856E-2,6.0578387E-2,-1.053038E-1,5.845227E-1,1.403525E0,-4.2731023E-1,8.730691E-1,3.998562E-1,9.6276194E-1,1.3822885E0,-1.1629822E0,-1.2545954E0,-3.8110965E-1,-6.932256E-1,-1.0963047E0,1.5868129E0,-1.2794216E0,-1.9551872E-1,6.9800866E-1,-9.6518105E-1,9.1384965E-1,1.3560473E0,-7.156447E-2,-1.2634394E0,2.9211736E-1,-8.6279385E-2,7.948986E-1,1.4149469E0,1.514803E-1,5.2588653E-2,1.671669E-2,4.2408213E-2,7.2405785E-2,2.5845716E-2,-2.6278475E-2,5.0672133E-2,-4.9886722E-2,2.1501211E-2,-8.355337E-2,5.406115E-4,5.197523E-2,6.974047E-2,-1.0472881E-1,7.279291E-2,-1.0148483E-1,-6.413971E-2,-3.729443E-2,9.993886E-2,-5.884686E-2,-3.7018146E-2,2.2106795E-2,-7.128485E-2,-5.004241E-2,1.2869182E-1,-6.5267295E-2,5.9357584E-2,-6.7949355E-2,3.1771433E-2,-2.4197679E-2,-8.90143E-2,4.155668E-2,-7.9207174E-2,4.6276446E-2,4.9184524E-2,-1.0228343E-1,6.803117E-2,-8.9065336E-2,-8.055488E-2,2.1167057E-2,-8.184632E-2,5.5203564E-2,4.876865E-2,-8.406107E-3,6.497111E-2,7.274159E-2,-9.656605E-2,6.863629E-2],"categories":[],"categories_nodes":[],"categories_segments":[],"categories_sizes":[],"default_left":[0,0,0,0,0,0,0,0,0,0,0,0,0,0,0,0,0,0,0,0,0,0,0,0,0,0,0,0,0,0,0,0,0,0,0,0,0,0,0,0,0,0,0,0,0,0,0,0,0,0,0,0,0,0,0,0,0,0,0,0,0,0,0,0,0,0,0,0,0,0,0,0,0,0,0,0,0,0,0,0,0,0,0,0,0,0,0,0,0,0,0,0,0,0,0,0,0,0,0,0,0,0,0,0,0],"id":9,"left_children":[1,3,5,7,9,11,13,15,17,19,21,23,25,27,29,31,33,35,37,39,41,43,45,47,49,51,53,55,-1,-1,-1,57,59,61,63,65,67,69,71,73,75,77,79,81,83,85,87,89,91,93,-1,95,97,-1,99,101,103,-1,-1,-1,-1,-1,-1,-1,-1,-1,-1,-1,-1,-1,-1,-1,-1,-1,-1,-1,-1,-1,-1,-1,-1,-1,-1,-1,-1,-1,-1,-1,-1,-1,-1,-1,-1,-1,-1,-1,-1,-1,-1,-1,-1,-1,-1,-1,-1],"loss_changes":[3.972534E4,2.4547447E4,9.905742E2,1.345351E4,2.689586E3,7.9670605E2,1.3512695E2,1.2757976E4,1.5400273E3,8.7594727E2,7.997677E2,2.1053809E2,7.052104E2,8.974609E1,8.616148E1,1.3718677E3,9.503416E3,1.7081357E3,1.7990723E2,3.3224805E2,7.710586E2,1.4127496E2,5.440611E2,2.2238927E2,4.995752E1,1.4770526E2,4.924455E2,7.83457E1,0E0,0E0,0E0,1.2867913E3,6.1003906E1,6.2953086E3,1.6102056E3,1.3024358E3,5.3139453E2,1.1350488E2,6.734138E1,1.633418E2,8.637061E2,5.617417E2,2.715664E2,5.4571255E1,1.08690796E2,4.81576E2,3.4180634E2,8.828768E1,8.927234E1,3.8961914E1,0E0,1.5078598E2,1.282456E2,0E0,3.047135E2,7.201367E1,1.3105809E2,0E0,0E0,0E0,0E0,0E0,0E0,0E0,0E0,0E0,0E0,0E0,0E0,0E0,0E0,0E0,0E0,0E0,0E0,0E0,0E0,0E0,0E0,0E0,0E0,0E0,0E0,0E0,0E0,0E0,0E0,0E0,0E0,0E0,0E0,0E0,0E0,0E0,0E0,0E0,0E0,0E0,0E0,0E0,0E0,0E0,0E0,0E0,0E0],"parents":[2147483647,0,0,1,1,2,2,3,3,4,4,5,5,6,6,7,7,8,8,9,9,10,10,11,11,12,12,13,13,14,14,15,15,16,16,17,17,18,18,19,19,20,20,21,21,22,22,23,23,24,24,25,25,26,26,27,27,31,31,32,32,33,33,34,34,35,35,36,36,37,37,38,38,39,39,40,40,41,41,42,42,43,43,44,44,45,45,46,46,47,47,48,48,49,49,51,51,52,52,54,54,55,55,56,56],"right_children":[2,4,6,8,10,12,14,16,18,20,22,24,26,28,30,32,34,36,38,40,42,44,46,48,50,52,54,56,-1,-1,-1,58,60,62,64,66,68,70,72,74,76,78,80,82,84,86,88,90,92,94,-1,96,98,-1,100,102,104,-1,-1,-1,-1,-1,-1,-1,-1,-1,-1,-1,-1,-1,-1,-1,-1,-1,-1,-1,-1,-1,-1,-1,-1,-1,-1,-1,-1,-1,-1,-1,-1,-1,-1,-1,-1,-1,-1,-1,-1,-1,-1,-1,-1,-1,-1,-1,-1],"split_conditions":[2E0,1E0,3E0,1E0,1.32E2,1E0,1.26776E2,1E0,5E0,1.1502581E2,1.07810585E2,1E0,2E0,9.666E2,-9E0,2E0,4E0,1.559E2,3E0,3.2085E2,9E0,1.137E3,3.22834E1,2.405206E6,3E0,4.295E1,1.5E2,3.23E2,-9.907856E-2,6.0578387E-2,-1.053038E-1,1E0,2E0,4E0,2.56E2,1.7E1,3E0,1E0,2E0,2.5E2,1E0,4.78526E1,1.77E2,2E0,1.44E2,4E0,2.90695E6,1.6873E4,4.0637903E2,2.0385E2,-7.156447E-2,1E0,3.87473E6,-8.6279385E-2,2E0,5E0,4E0,5.2588653E-2,1.671669E-2,4.2408213E-2,7.2405785E-2,2.5845716E-2,-2.6278475E-2,5.0672133E-2,-4.9886722E-2,2.1501211E-2,-8.355337E-2,5.406115E-4,5.197523E-2,6.974047E-2,-1.0472881E-1,7.279291E-2,-1.0148483E-1,-6.413971E-2,-3.729443E-2,9.993886E-2,-5.884686E-2,-3.7018146E-2,2.2106795E-2,-7.128485E-2,-5.004241E-2,1.2869182E-1,-6.5267295E-2,5.9357584E-2,-6.7949355E-2,3.1771433E-2,-2.4197679E-2,-8.90143E-2,4.155668E-2,-7.9207174E-2,4.6276446E-2,4.9184524E-2,-1.0228343E-1,6.803117E-2,-8.9065336E-2,-8.055488E-2,2.1167057E-2,-8.184632E-2,5.5203564E-2,4.876865E-2,-8.406107E-3,6.497111E-2,7.274159E-2,-9.656605E-2,6.863629E-2],"split_indices":[216,114,14,309,323,26,221,26,25,358,358,342,15,177,340,21,21,330,300,174,30,3,177,0,308,174,5,29,0,0,0,2,14,29,29,300,298,142,28,1,19,326,360,26,5,29,0,3,359,335,0,115,0,0,192,14,216,0,0,0,0,0,0,0,0,0,0,0,0,0,0,0,0,0,0,0,0,0,0,0,0,0,0,0,0,0,0,0,0,0,0,0,0,0,0,0,0,0,0,0,0,0,0,0,0],"split_type":[0,0,0,0,0,0,0,0,0,0,0,0,0,0,0,0,0,0,0,0,0,0,0,0,0,0,0,0,0,0,0,0,0,0,0,0,0,0,0,0,0,0,0,0,0,0,0,0,0,0,0,0,0,0,0,0,0,0,0,0,0,0,0,0,0,0,0,0,0,0,0,0,0,0,0,0,0,0,0,0,0,0,0,0,0,0,0,0,0,0,0,0,0,0,0,0,0,0,0,0,0,0,0,0,0],"sum_hessian":[1.7418206E5,1.5284714E5,2.133493E4,1.1817136E5,3.4675777E4,5.2102407E3,1.6124688E4,8.749717E4,3.067419E4,3.1076684E4,3.5990918E3,3.0440737E3,2.1661672E3,1.609462E4,3.0068161E1,1.3521571E4,7.39756E4,2.8107623E4,2.566567E3,1.1906213E4,1.917047E4,5.615457E2,3.0375461E3,4.943567E2,2.5497168E3,3.3468982E2,1.8314774E3,1.6087646E4,6.9736805E0,1.286522E1,1.720294E1,1.1009549E4,2.512022E3,6.784894E4,6.1266655E3,2.0834582E4,7.273041E3,2.5392002E3,2.736674E1,1.1452428E4,4.537851E2,1.0489225E4,8.681246E3,1.6939816E1,5.446059E2,2.0070115E3,1.0305347E3,7.318875E1,4.2116794E2,2.544035E3,5.681887E0,2.5496533E2,7.972448E1,8.018392E1,1.7512936E3,1.6038164E4,4.9482117E1,3.8381868E3,7.1713623E3,1.8819092E2,2.323831E3,6.3946973E3,6.145424E4,5.6994707E3,4.2719476E2,2.0536213E4,2.983674E2,5.4266974E2,6.7303716E3,2.5306855E3,8.514646E0,6.6359587E0,2.073078E1,1.0849496E4,6.029316E2,1.1333883E2,3.4044626E2,1.0071433E4,4.1779224E2,1.9474031E3,6.7338433E3,1.2711689E1,4.2281265E0,1.658365E1,5.280222E2,5.1684314E2,1.4901683E3,5.1903824E1,9.786308E2,5.5260303E1,1.7928446E1,4.121103E2,9.05765E0,2.5408953E3,3.1397676E0,2.1143239E2,4.3532944E1,2.3315464E1,5.640902E1,1.4748815E3,2.764121E2,4.1247114E3,1.1913452E4,1.8074724E1,3.1407393E1],"tree_param":{"num_deleted":"0","num_feature":"366","num_nodes":"105","size_leaf_vector":"1"}},{"base_weights":[-5.97374E-3,-1.9495603E-1,1.1890014E0,1.2968824E-2,-8.940622E-1,7.874684E-1,1.3297757E0,-1.7976555E-1,5.688659E-1,-1.0067247E0,-2.169022E-1,1.1720152E0,2.6244637E-1,1.3411112E0,-1.2400281E0,6.919369E-1,-3.3508182E-1,4.1411653E-1,8.377056E-1,-1.2109903E0,-8.809574E-1,-1.0805312E0,1.3953112E-3,5.553351E-1,1.2737334E0,-6.663237E-1,5.3286445E-1,1.3517408E0,4.9940506E-1,-7.5300746E-2,6.076933E-2,9.7273076E-1,3.4541336E-1,-4.781025E-1,3.9089057E-1,3.2105002E-1,1.3065897E0,-1.7649807E0,8.7545305E-1,-1.2242432E0,-1.8274435E-1,-7.4438065E-1,-1.1266264E0,4.0094692E-2,-1.3922493E0,-2.5931808E-1,6.546488E-1,-1.197616E0,8.4884083E-1,1.2828817E0,-7.4433535E-2,2.5747958E-1,-1.075069E0,-1.9186793E-1,7.376665E-1,1.14887E0,1.3859899E0,-8.727442E-2,7.380614E-1,1.4851766E-2,5.526808E-2,1.0751347E-2,7.1477406E-2,1.9330995E-2,-3.0252839E-2,6.6061735E-2,9.184052E-3,1.0459691E-3,2.7996141E-2,6.682112E-2,-1.0195132E-1,-1.02292076E-1,5.9364207E-2,3.8771033E-2,6.140081E-2,-5.6451965E-2,-6.726982E-2,-2.359078E-2,1.2616588E-1,-4.010737E-2,2.316058E-3,-5.7342734E-2,1.9759791E-2,6.4526E-2,-7.690453E-2,-7.2877E-2,-4.0835906E-3,-1.9400286E-2,5.1963486E-2,-1.4691981E-2,4.555574E-2,4.3866184E-2,-7.743555E-2,-1.4569479E-2,5.2521724E-2,6.445106E-2,-9.827266E-2,2.7175335E-2,-8.368944E-2,7.6867744E-2,-5.8995314E-2,-6.442329E-2,1.1540898E-2,1.0141345E-2,4.5829043E-2,6.325214E-2,-6.20302E-4,6.944418E-2,-3.0797124E-2,4.5460686E-2,-8.904313E-2],"categories":[],"categories_nodes":[],"categories_segments":[],"categories_sizes":[],"default_left":[0,0,0,0,0,0,0,0,0,0,0,0,0,0,0,0,0,0,0,0,0,0,0,0,0,0,0,0,0,0,0,0,0,0,0,0,0,0,0,0,0,0,0,0,0,0,0,0,0,0,0,0,0,0,0,0,0,0,0,0,0,0,0,0,0,0,0,0,0,0,0,0,0,0,0,0,0,0,0,0,0,0,0,0,0,0,0,0,0,0,0,0,0,0,0,0,0,0,0,0,0,0,0,0,0,0,0,0,0,0,0],"id":10,"left_children":[1,3,5,7,9,11,13,15,17,19,21,23,25,27,29,31,33,35,37,39,41,43,45,47,49,51,53,55,57,-1,-1,59,61,63,65,67,69,71,73,75,77,79,81,83,85,87,89,91,93,95,-1,97,99,101,103,105,107,-1,109,-1,-1,-1,-1,-1,-1,-1,-1,-1,-1,-1,-1,-1,-1,-1,-1,-1,-1,-1,-1,-1,-1,-1,-1,-1,-1,-1,-1,-1,-1,-1,-1,-1,-1,-1,-1,-1,-1,-1,-1,-1,-1,-1,-1,-1,-1,-1,-1,-1,-1,-1,-1],"loss_changes":[3.875384E4,2.1538754E4,1.3235352E3,1.2236375E4,2.5911328E3,1.2282988E3,5.0703516E2,1.1482059E4,1.2228936E3,7.4706055E2,9.136841E2,2.1961035E2,6.468439E2,1.5386914E2,5.193036E1,1.2476094E3,7.4739385E3,1.5497297E3,1.056769E3,1.509668E2,6.040381E2,3.416366E2,6.5920105E2,2.5779443E2,7.808447E1,2.1962296E2,2.961275E2,1.1692383E2,1.1754942E2,0E0,0E0,6.345381E2,8.11417E2,6.6018584E3,2.283651E3,1.2117491E3,1.7859497E2,1.3002304E2,3.72458E2,1.2482031E2,1.12546196E2,5.2939307E2,1.9868066E2,4.2385666E2,6.534668E1,4.627126E2,2.6884375E2,5.3806213E1,9.870764E1,6.2459473E1,0E0,9.978308E1,1.1216141E2,2.0431932E2,1.4861224E2,3.331797E2,8.5365234E1,0E0,8.648636E1,0E0,0E0,0E0,0E0,0E0,0E0,0E0,0E0,0E0,0E0,0E0,0E0,0E0,0E0,0E0,0E0,0E0,0E0,0E0,0E0,0E0,0E0,0E0,0E0,0E0,0E0,0E0,0E0,0E0,0E0,0E0,0E0,0E0,0E0,0E0,0E0,0E0,0E0,0E0,0E0,0E0,0E0,0E0,0E0,0E0,0E0,0E0,0E0,0E0,0E0,0E0,0E0],"parents":[2147483647,0,0,1,1,2,2,3,3,4,4,5,5,6,6,7,7,8,8,9,9,10,10,11,11,12,12,13,13,14,14,15,15,16,16,17,17,18,18,19,19,20,20,21,21,22,22,23,23,24,24,25,25,26,26,27,27,28,28,31,31,32,32,33,33,34,34,35,35,36,36,37,37,38,38,39,39,40,40,41,41,42,42,43,43,44,44,45,45,46,46,47,47,48,48,49,49,51,51,52,52,53,53,54,54,55,55,56,56,58,58],"right_children":[2,4,6,8,10,12,14,16,18,20,22,24,26,28,30,32,34,36,38,40,42,44,46,48,50,52,54,56,58,-1,-1,60,62,64,66,68,70,72,74,76,78,80,82,84,86,88,90,92,94,96,-1,98,100,102,104,106,108,-1,110,-1,-1,-1,-1,-1,-1,-1,-1,-1,-1,-1,-1,-1,-1,-1,-1,-1,-1,-1,-1,-1,-1,-1,-1,-1,-1,-1,-1,-1,-1,-1,-1,-1,-1,-1,-1,-1,-1,-1,-1,-1,-1,-1,-1,-1,-1,-1,-1,-1,-1,-1,-1],"split_conditions":[2E0,1E0,3E0,1E0,6.8E1,1E0,1.96E2,1E0,4E0,1.1502581E2,1.07810585E2,1E0,2.606907E6,1E0,7E0,2E0,4E0,4E0,3.8826374E1,6E2,1.2E1,8.108134E1,2.159E2,2.405206E6,3E0,1.043849E6,4.2415344E1,4E0,1E0,-7.5300746E-2,6.076933E-2,2.405206E6,2E0,9E0,3E0,1.8520927E2,2E0,7E0,2E0,3.61E2,2E0,5.83E2,2E0,1E0,1.46E2,1.0361E4,1E0,1E0,1.598E3,1.77E2,-7.4433535E-2,3E0,1E0,7.23E2,2E0,2E0,2E0,-8.727442E-2,1.75E1,1.4851766E-2,5.526808E-2,1.0751347E-2,7.1477406E-2,1.9330995E-2,-3.0252839E-2,6.6061735E-2,9.184052E-3,1.0459691E-3,2.7996141E-2,6.682112E-2,-1.0195132E-1,-1.02292076E-1,5.9364207E-2,3.8771033E-2,6.140081E-2,-5.6451965E-2,-6.726982E-2,-2.359078E-2,1.2616588E-1,-4.010737E-2,2.316058E-3,-5.7342734E-2,1.9759791E-2,6.4526E-2,-7.690453E-2,-7.2877E-2,-4.0835906E-3,-1.9400286E-2,5.1963486E-2,-1.4691981E-2,4.555574E-2,4.3866184E-2,-7.743555E-2,-1.4569479E-2,5.2521724E-2,6.445106E-2,-9.827266E-2,2.7175335E-2,-8.368944E-2,7.6867744E-2,-5.8995314E-2,-6.442329E-2,1.1540898E-2,1.0141345E-2,4.5829043E-2,6.325214E-2,-6.20302E-4,6.944418E-2,-3.0797124E-2,4.5460686E-2,-8.904313E-2],"split_indices":[273,114,14,309,172,27,33,27,298,358,358,342,0,143,15,2,15,17,358,1,32,358,327,0,308,0,358,14,203,0,0,0,23,29,26,359,302,25,105,4,98,4,311,126,15,360,119,362,357,335,0,247,15,360,15,26,187,0,284,0,0,0,0,0,0,0,0,0,0,0,0,0,0,0,0,0,0,0,0,0,0,0,0,0,0,0,0,0,0,0,0,0,0,0,0,0,0,0,0,0,0,0,0,0,0,0,0,0,0,0,0],"split_type":[0,0,0,0,0,0,0,0,0,0,0,0,0,0,0,0,0,0,0,0,0,0,0,0,0,0,0,0,0,0,0,0,0,0,0,0,0,0,0,0,0,0,0,0,0,0,0,0,0,0,0,0,0,0,0,0,0,0,0,0,0,0,0,0,0,0,0,0,0,0,0,0,0,0,0,0,0,0,0,0,0,0,0,0,0,0,0,0,0,0,0,0,0,0,0,0,0,0,0,0,0,0,0,0,0,0,0,0,0,0,0],"sum_hessian":[1.7160488E5,1.481726E5,2.3432283E4,1.1420674E5,3.396585E4,6.0843564E3,1.7347926E4,8.480484E4,2.9401902E4,2.912045E4,4.845401E3,3.5113057E3,2.573051E3,1.7272217E4,7.571015E1,1.2824532E4,7.198031E4,1.8662148E4,1.0739756E4,1.1093786E4,1.8026664E4,9.7684705E2,3.868554E3,4.9808115E2,3.0132246E3,5.7989526E2,1.9931558E3,1.7056213E4,2.1600304E2,6.8659195E1,7.0509586E0,7.0831387E3,5.7413936E3,6.0133926E4,1.1846383E4,1.6901074E4,1.761073E3,1.5288065E2,1.0586875E4,1.0952432E4,1.4135397E2,1.158831E4,6.438354E3,2.1277887E2,7.640682E2,2.7654614E3,1.1030924E3,7.0993706E1,4.2708743E2,3.0038123E3,9.412253E0,1.7799028E2,4.01905E2,4.3916113E2,1.5539946E3,2.468549E3,1.4587664E4,2.0150057E1,1.9585298E2,1.1627386E3,5.9204004E3,5.126089E3,6.153048E2,7.6980728E3,5.2435855E4,2.1568823E3,9.689501E3,7.4906143E3,9.410461E3,1.7461036E3,1.4969324E1,1.398803E2,1.3000349E1,8.249462E3,2.3374124E3,6.1387993E3,4.8136323E3,1.2845734E2,1.289663E1,1.0799323E4,7.8898627E2,6.35414E3,8.421351E1,1.1881881E2,9.396006E1,7.277032E2,3.6365E1,2.5167568E3,2.4870468E2,2.3475436E2,8.68338E2,1.0057281E1,6.0936428E1,6.4098045E1,3.6298938E2,2.9987476E3,5.06466E0,1.5565573E2,2.2334545E1,1.4979106E1,3.8692587E2,1.2161088E2,3.1755026E2,3.900695E2,1.1639252E3,2.2439746E3,2.2457446E2,1.4566915E4,2.0749557E1,1.839905E2,1.1862476E1],"tree_param":{"num_deleted":"0","num_feature":"366","num_nodes":"111","size_leaf_vector":"1"}},{"base_weights":[3.4915945E-3,-1.8011706E-1,1.1668717E0,1.9151395E-2,-8.551659E-1,8.0051506E-1,1.301297E0,-1.6218717E-1,5.453549E-1,-9.445309E-1,-1.1002129E-2,1.1503029E0,3.6057088E-1,1.3128331E0,-1.2475657E0,6.6316634E-1,-3.0537063E-1,4.867828E-1,1.2502306E0,-9.7284263E-1,-3.407367E-2,6.6242224E-1,-4.2954177E-1,5.9233356E-1,1.2437329E0,-1.730428E-1,5.688629E-1,1.1630524E0,1.365325E0,-7.3795736E-2,6.286331E-2,5.0479907E-1,1.2306947E0,-4.0499344E-1,6.4773726E-1,3.443678E-1,8.900605E-1,3.1100094E-1,1.3294299E0,-1.1632886E0,-8.5601074E-1,-5.889057E-1,6.4628947E-1,9.738165E-3,1.2567841E0,-5.8673245E-1,1.1919063E0,9.8799896E-1,-1.1653442E-1,1.2556527E0,-8.687054E-2,-6.3311684E-1,6.423032E-1,2.939855E-1,1.0539931E0,1.2767131E0,3.726784E-1,1.3682995E0,-7.618178E-2,1.5438937E-2,4.913006E-2,2.6327742E-2,6.8481795E-2,1.9982165E-2,-2.536479E-2,6.699016E-2,-4.481408E-3,1.855744E-2,-8.4054284E-2,4.67582E-2,-2.7281268E-2,-7.445236E-2,4.2045865E-2,6.97066E-2,2.4975102E-2,-5.9597712E-2,-2.795343E-2,-3.4765296E-2,-5.2495826E-2,-4.5871157E-2,3.5942458E-2,4.8144452E-2,-7.951989E-2,-5.372374E-2,1.5510092E-2,-3.112272E-2,7.081678E-2,-4.039439E-2,1.5764942E-2,-8.404798E-2,7.293861E-2,5.917188E-2,-5.2463915E-3,2.2800889E-2,-4.7018442E-2,6.3113615E-2,-8.974185E-2,-4.5003626E-2,4.856771E-2,-3.336826E-2,5.120161E-2,-3.6090355E-2,2.5922826E-2,5.58024E-2,-9.13887E-2,6.4375855E-2,-6.270183E-2,2.5032112E-2,-1.2973765E-1,6.851408E-2,-7.8566484E-2],"categories":[],"categories_nodes":[],"categories_segments":[],"categories_sizes":[],"default_left":[0,0,0,0,0,0,0,0,0,0,0,0,0,0,0,0,0,0,0,0,0,0,0,0,0,0,0,0,0,0,0,0,0,0,0,0,0,0,0,0,0,0,0,0,0,0,0,0,0,0,0,0,0,0,0,0,0,0,0,0,0,0,0,0,0,0,0,0,0,0,0,0,0,0,0,0,0,0,0,0,0,0,0,0,0,0,0,0,0,0,0,0,0,0,0,0,0,0,0,0,0,0,0,0,0,0,0,0,0,0,0],"id":11,"left_children":[1,3,5,7,9,11,13,15,17,19,21,23,25,27,29,31,33,35,37,39,41,43,45,47,49,51,53,55,57,-1,-1,59,61,63,65,67,69,71,73,75,77,79,81,83,85,87,89,91,93,95,-1,97,99,101,103,105,107,109,-1,-1,-1,-1,-1,-1,-1,-1,-1,-1,-1,-1,-1,-1,-1,-1,-1,-1,-1,-1,-1,-1,-1,-1,-1,-1,-1,-1,-1,-1,-1,-1,-1,-1,-1,-1,-1,-1,-1,-1,-1,-1,-1,-1,-1,-1,-1,-1,-1,-1,-1,-1,-1],"loss_changes":[3.6441613E4,1.98205E4,1.1441953E3,1.0855699E4,2.5333906E3,9.60594E2,5.0183008E2,9.999021E3,1.2031934E3,7.8274023E2,9.0666797E2,1.8059863E2,3.076927E2,1.3155664E2,4.5987595E1,1.1236118E3,6.8463813E3,1.5459131E3,1.6594019E2,6.5430664E2,3.4648767E2,4.7829553E2,5.0632578E2,1.4058308E2,1.0802539E2,2.9214975E2,2.6515375E2,3.949292E2,1.0979492E2,0E0,0E0,9.1579297E2,2.6619482E2,5.373713E3,3.4822085E3,1.079948E3,4.554453E2,1.6838771E2,1.1003638E2,1.9323926E2,5.682002E2,2.1785345E2,2.9351074E2,1.9209976E2,1.9436829E2,3.611615E2,1.3711992E2,6.8801605E1,8.547364E1,6.2185547E1,0E0,2.140464E2,1.4118771E2,2.904337E2,1.3072571E2,1.0681836E2,2.1196748E2,7.511328E1,0E0,0E0,0E0,0E0,0E0,0E0,0E0,0E0,0E0,0E0,0E0,0E0,0E0,0E0,0E0,0E0,0E0,0E0,0E0,0E0,0E0,0E0,0E0,0E0,0E0,0E0,0E0,0E0,0E0,0E0,0E0,0E0,0E0,0E0,0E0,0E0,0E0,0E0,0E0,0E0,0E0,0E0,0E0,0E0,0E0,0E0,0E0,0E0,0E0,0E0,0E0,0E0,0E0],"parents":[2147483647,0,0,1,1,2,2,3,3,4,4,5,5,6,6,7,7,8,8,9,9,10,10,11,11,12,12,13,13,14,14,15,15,16,16,17,17,18,18,19,19,20,20,21,21,22,22,23,23,24,24,25,25,26,26,27,27,28,28,31,31,32,32,33,33,34,34,35,35,36,36,37,37,38,38,39,39,40,40,41,41,42,42,43,43,44,44,45,45,46,46,47,47,48,48,49,49,51,51,52,52,53,53,54,54,55,55,56,56,57,57],"right_children":[2,4,6,8,10,12,14,16,18,20,22,24,26,28,30,32,34,36,38,40,42,44,46,48,50,52,54,56,58,-1,-1,60,62,64,66,68,70,72,74,76,78,80,82,84,86,88,90,92,94,96,-1,98,100,102,104,106,108,110,-1,-1,-1,-1,-1,-1,-1,-1,-1,-1,-1,-1,-1,-1,-1,-1,-1,-1,-1,-1,-1,-1,-1,-1,-1,-1,-1,-1,-1,-1,-1,-1,-1,-1,-1,-1,-1,-1,-1,-1,-1,-1,-1,-1,-1,-1,-1,-1,-1,-1,-1,-1,-1],"split_conditions":[2E0,1E0,3E0,7.915E0,1.05E2,1E0,3.02E2,1E0,4E0,1.18E2,1.4E1,1E0,2E0,5E0,2E0,2E0,6E0,1.559E2,5E0,1.1502581E2,5E1,3E0,2.8E2,2E0,3E0,1E0,1E0,2E0,2E0,-7.3795736E-2,6.286331E-2,1.68E2,2E0,7E0,1.4E1,3.1E1,2.25E2,4.165042E1,2.5E2,2.8E2,9E0,2.4535391E2,1E1,3.21E2,1.1502581E2,5.2E2,1.6E1,1.18853E5,5.6024E4,1.8E3,-8.687054E-2,2E0,4.165042E1,1.17E2,5.184036E2,5E0,2.94E2,3E0,-7.618178E-2,1.5438937E-2,4.913006E-2,2.6327742E-2,6.8481795E-2,1.9982165E-2,-2.536479E-2,6.699016E-2,-4.481408E-3,1.855744E-2,-8.4054284E-2,4.67582E-2,-2.7281268E-2,-7.445236E-2,4.2045865E-2,6.97066E-2,2.4975102E-2,-5.9597712E-2,-2.795343E-2,-3.4765296E-2,-5.2495826E-2,-4.5871157E-2,3.5942458E-2,4.8144452E-2,-7.951989E-2,-5.372374E-2,1.5510092E-2,-3.112272E-2,7.081678E-2,-4.039439E-2,1.5764942E-2,-8.404798E-2,7.293861E-2,5.917188E-2,-5.2463915E-3,2.2800889E-2,-4.7018442E-2,6.3113615E-2,-8.974185E-2,-4.5003626E-2,4.856771E-2,-3.336826E-2,5.120161E-2,-3.6090355E-2,2.5922826E-2,5.58024E-2,-9.13887E-2,6.4375855E-2,-6.270183E-2,2.5032112E-2,-1.2973765E-1,6.851408E-2,-7.8566484E-2],"split_indices":[273,114,14,332,327,26,174,26,17,332,35,342,15,14,206,14,14,330,14,358,28,24,180,140,99,95,97,26,187,0,0,346,40,29,26,146,34,358,26,174,30,358,19,4,358,33,361,338,338,279,0,266,358,360,290,140,31,143,0,0,0,0,0,0,0,0,0,0,0,0,0,0,0,0,0,0,0,0,0,0,0,0,0,0,0,0,0,0,0,0,0,0,0,0,0,0,0,0,0,0,0,0,0,0,0,0,0,0,0,0,0],"split_type":[0,0,0,0,0,0,0,0,0,0,0,0,0,0,0,0,0,0,0,0,0,0,0,0,0,0,0,0,0,0,0,0,0,0,0,0,0,0,0,0,0,0,0,0,0,0,0,0,0,0,0,0,0,0,0,0,0,0,0,0,0,0,0,0,0,0,0,0,0,0,0,0,0,0,0,0,0,0,0,0,0,0,0,0,0,0,0,0,0,0,0,0,0,0,0,0,0,0,0,0,0,0,0,0,0,0,0,0,0,0,0],"sum_hessian":[1.705995E5,1.4734573E5,2.3253764E4,1.13764445E5,3.3581285E4,6.2438916E3,1.7009873E4,8.460785E4,2.9156594E4,3.0366504E4,3.2147817E3,3.4774495E3,2.7664421E3,1.6933715E4,7.615706E1,1.2507448E4,7.21004E4,2.6921246E4,2.2353484E3,2.9450633E4,9.158709E2,1.2319727E3,1.9828092E3,4.9982233E2,2.9776272E3,7.7673364E2,1.9897085E3,4.400487E3,1.2533229E4,7.017082E1,5.9862385E0,9.780198E3,2.7272493E3,6.5277863E4,6.822538E3,1.9896703E4,7.024542E3,1.7421747E2,2.0611309E3,1.119419E4,1.8256441E4,5.0454883E2,4.113221E2,5.876622E2,6.443105E2,1.8081562E3,1.7465291E2,3.205235E2,1.792988E2,2.9663455E3,1.1281734E1,4.9669043E2,2.800432E2,1.2711014E3,7.1860706E2,3.8466934E3,5.537937E2,1.2520863E4,1.2365288E1,6.936228E3,2.8439707E3,4.5024524E2,2.277004E3,7.362988E3,5.7914875E4,3.518953E3,3.3035854E3,1.9637865E4,2.5883942E2,6.810919E3,2.1362311E2,3.9211567E1,1.350059E2,1.9114335E3,1.4969731E2,1.0686237E4,5.079531E2,9.985372E3,8.27107E3,4.034882E2,1.0106066E2,3.6081833E2,5.0503765E1,1.2695896E2,4.607032E2,5.0195293E1,5.941152E2,1.4522144E3,3.5594183E2,1.4394479E1,1.6025842E2,2.7183142E2,4.8692074E1,1.0604537E2,7.3253426E1,2.9605073E3,5.8381643E0,4.262148E2,7.04756E1,6.3033665E1,2.1700957E2,2.2965125E2,1.0414502E3,7.040588E2,1.4548225E1,3.8308306E3,1.586283E1,5.316968E2,2.2096947E1,1.251296E4,7.9034634E0],"tree_param":{"num_deleted":"0","num_feature":"366","num_nodes":"111","size_leaf_vector":"1"}},{"base_weights":[-1.1568563E-3,-1.7523675E-1,1.1348596E0,1.9366557E-2,-8.3658236E-1,8.5231173E-1,1.3023705E0,-1.8700454E-1,4.5411742E-1,-9.3124986E-1,-2.6704782E-1,9.818794E-1,3.9855298E-1,1.3120147E0,-1.6186314E0,5.298853E-1,-3.3053467E-1,6.154564E-1,-6.246099E-1,-1.1341649E0,-8.077682E-1,6.7393625E-1,-4.6089953E-1,4.3269297E-1,1.0944915E0,-4.311035E-1,6.37678E-1,1.3303316E0,8.3050054E-1,-9.860078E-2,-6.678253E-2,-2.2866406E-1,6.73022E-1,-5.280112E-1,4.189955E-1,1.1487243E0,4.3733266E-1,-4.9928564E-1,-1.7938604E0,-9.039861E-1,-1.2086966E0,-6.532469E-1,-1.0024731E0,-7.10894E-1,1.0157967E0,-6.153428E-1,5.2491766E-1,3.713701E-2,1.2026842E0,1.2037147E0,6.4477926E-1,-1.5551724E0,-9.781918E-2,-8.008574E-2,7.3489916E-1,1.3323015E0,-7.980776E-1,-1.2463762E0,1.0634596E0,-2.8490677E-2,3.8855027E-2,4.7388386E-2,1.8413326E-2,-8.142171E-3,-3.5598498E-2,4.8892163E-3,4.685627E-2,4.7715932E-2,7.071356E-2,9.124407E-3,4.2269077E-2,-3.007549E-2,3.6850315E-2,2.200745E-2,-9.592046E-2,-4.9002483E-2,3.417113E-2,-6.236754E-2,-3.633103E-2,-4.9254272E-2,-2.582783E-2,-5.2318078E-2,1.3905929E-2,-6.3350506E-2,2.695633E-2,5.99848E-2,-2.440283E-2,-7.9701236E-4,-4.1958567E-2,-7.4345574E-2,4.0385604E-2,2.717678E-2,-3.1212991E-2,6.248609E-2,-8.90057E-2,-3.7564405E-3,6.1015856E-2,1.5523948E-2,5.483647E-2,1.5431744E-2,-8.698372E-2,1.0329941E-2,-9.130015E-2,-7.6093815E-2,4.0398847E-2,6.6657014E-2,-1.0090554E-1,-1.1931836E-1,5.8580007E-2,-9.911872E-2,6.490487E-2,6.1882157E-3,6.389898E-2],"categories":[],"categories_nodes":[],"categories_segments":[],"categories_sizes":[],"default_left":[0,0,0,0,0,0,0,0,0,0,0,0,0,0,0,0,0,0,0,0,0,0,0,0,0,0,0,0,0,0,0,0,0,0,0,0,0,0,0,0,0,0,0,0,0,0,0,0,0,0,0,0,0,0,0,0,0,0,0,0,0,0,0,0,0,0,0,0,0,0,0,0,0,0,0,0,0,0,0,0,0,0,0,0,0,0,0,0,0,0,0,0,0,0,0,0,0,0,0,0,0,0,0,0,0,0,0,0,0,0,0,0,0],"id":12,"left_children":[1,3,5,7,9,11,13,15,17,19,21,23,25,27,29,31,33,35,37,39,41,43,45,47,49,51,53,55,57,-1,-1,59,61,63,65,67,69,71,73,75,77,79,81,83,85,87,89,91,93,95,97,99,101,-1,103,105,107,109,111,-1,-1,-1,-1,-1,-1,-1,-1,-1,-1,-1,-1,-1,-1,-1,-1,-1,-1,-1,-1,-1,-1,-1,-1,-1,-1,-1,-1,-1,-1,-1,-1,-1,-1,-1,-1,-1,-1,-1,-1,-1,-1,-1,-1,-1,-1,-1,-1,-1,-1,-1,-1,-1,-1],"loss_changes":[3.336271E4,1.8827322E4,1.059875E3,1.0141142E4,1.7929727E3,4.90313E2,3.985254E2,7.8868384E3,6.332614E3,7.1364844E2,8.6526514E2,4.010127E2,3.684045E2,1.2259961E2,2.0415192E0,1.388437E3,9.452762E3,3.0058965E3,6.928308E2,1.8395703E2,5.328584E2,3.8437726E2,5.9903986E2,3.369078E2,2.6380322E2,1.5560394E2,3.148659E2,5.770703E1,2.5129282E2,0E0,0E0,6.9713306E2,9.0031836E2,3.3953262E3,2.2163381E3,4.0773047E2,2.467209E3,5.41E2,1.2825696E2,3.197163E2,1.5087402E2,4.480713E2,4.4116992E2,1.126274E2,1.8044708E2,4.56172E2,3.0453625E2,2.4547026E2,5.489734E1,9.208447E1,1.59018E2,3.3209442E1,1.6964272E2,0E0,2.2907532E2,4.0623047E1,4.383383E1,1.0101672E2,9.3594055E1,0E0,0E0,0E0,0E0,0E0,0E0,0E0,0E0,0E0,0E0,0E0,0E0,0E0,0E0,0E0,0E0,0E0,0E0,0E0,0E0,0E0,0E0,0E0,0E0,0E0,0E0,0E0,0E0,0E0,0E0,0E0,0E0,0E0,0E0,0E0,0E0,0E0,0E0,0E0,0E0,0E0,0E0,0E0,0E0,0E0,0E0,0E0,0E0,0E0,0E0,0E0,0E0,0E0,0E0],"parents":[2147483647,0,0,1,1,2,2,3,3,4,4,5,5,6,6,7,7,8,8,9,9,10,10,11,11,12,12,13,13,14,14,15,15,16,16,17,17,18,18,19,19,20,20,21,21,22,22,23,23,24,24,25,25,26,26,27,27,28,28,31,31,32,32,33,33,34,34,35,35,36,36,37,37,38,38,39,39,40,40,41,41,42,42,43,43,44,44,45,45,46,46,47,47,48,48,49,49,50,50,51,51,52,52,54,54,55,55,56,56,57,57,58,58],"right_children":[2,4,6,8,10,12,14,16,18,20,22,24,26,28,30,32,34,36,38,40,42,44,46,48,50,52,54,56,58,-1,-1,60,62,64,66,68,70,72,74,76,78,80,82,84,86,88,90,92,94,96,98,100,102,-1,104,106,108,110,112,-1,-1,-1,-1,-1,-1,-1,-1,-1,-1,-1,-1,-1,-1,-1,-1,-1,-1,-1,-1,-1,-1,-1,-1,-1,-1,-1,-1,-1,-1,-1,-1,-1,-1,-1,-1,-1,-1,-1,-1,-1,-1,-1,-1,-1,-1,-1,-1,-1,-1,-1,-1,-1,-1],"split_conditions":[2E0,1E0,3E0,2E0,6.8E1,1E0,6E3,1E0,1.97E2,1.1502581E2,3E0,1E0,2.606907E6,2E0,1E0,2.235065E6,1.52E2,2E0,8E0,1E0,3E1,1.2632388E2,1.0344E4,2E0,2E0,1.48E2,1.47E2,1.64406E2,2.05E2,-9.860078E-2,-6.678253E-2,1.84E2,2E0,2E0,2.812289E2,3E0,1E0,2E0,1E0,3.2085E2,1.2330496E0,-3.7624076E-1,2E0,1.339133E7,7.5E2,1E0,3E0,1E0,4E0,3.56685E1,3E0,-4.4E1,1.29426E2,-8.008574E-2,1E0,9.666E2,1.4233288E7,2.4E1,2E0,-2.8490677E-2,3.8855027E-2,4.7388386E-2,1.8413326E-2,-8.142171E-3,-3.5598498E-2,4.8892163E-3,4.685627E-2,4.7715932E-2,7.071356E-2,9.124407E-3,4.2269077E-2,-3.007549E-2,3.6850315E-2,2.200745E-2,-9.592046E-2,-4.9002483E-2,3.417113E-2,-6.236754E-2,-3.633103E-2,-4.9254272E-2,-2.582783E-2,-5.2318078E-2,1.3905929E-2,-6.3350506E-2,2.695633E-2,5.99848E-2,-2.440283E-2,-7.9701236E-4,-4.1958567E-2,-7.4345574E-2,4.0385604E-2,2.717678E-2,-3.1212991E-2,6.248609E-2,-8.90057E-2,-3.7564405E-3,6.1015856E-2,1.5523948E-2,5.483647E-2,1.5431744E-2,-8.698372E-2,1.0329941E-2,-9.130015E-2,-7.6093815E-2,4.0398847E-2,6.6657014E-2,-1.0090554E-1,-1.1931836E-1,5.8580007E-2,-9.911872E-2,6.490487E-2,6.1882157E-3,6.389898E-2],"split_indices":[273,135,273,24,172,240,280,26,29,358,29,342,0,240,143,0,323,26,300,106,31,358,360,258,232,360,5,220,360,0,0,5,2,8,359,24,310,159,295,174,363,363,81,0,323,106,6,26,141,358,24,337,278,0,186,177,0,236,24,0,0,0,0,0,0,0,0,0,0,0,0,0,0,0,0,0,0,0,0,0,0,0,0,0,0,0,0,0,0,0,0,0,0,0,0,0,0,0,0,0,0,0,0,0,0,0,0,0,0,0,0,0,0],"split_type":[0,0,0,0,0,0,0,0,0,0,0,0,0,0,0,0,0,0,0,0,0,0,0,0,0,0,0,0,0,0,0,0,0,0,0,0,0,0,0,0,0,0,0,0,0,0,0,0,0,0,0,0,0,0,0,0,0,0,0,0,0,0,0,0,0,0,0,0,0,0,0,0,0,0,0,0,0,0,0,0,0,0,0,0,0,0,0,0,0,0,0,0,0,0,0,0,0,0,0,0,0,0,0,0,0,0,0,0,0,0,0,0,0],"sum_hessian":[1.6870308E5,1.4628728E5,2.2415797E4,1.13029055E5,3.325823E4,8.34538E3,1.4070417E4,7.664646E4,3.6382598E4,2.851745E4,4.74078E3,6.4908096E3,1.8545698E3,1.4024663E4,4.5754005E1,1.2785256E4,6.38612E4,3.1649406E4,4.733189E3,1.078556E4,1.773189E4,8.0939294E2,3.9313867E3,1.1053052E3,5.3855044E3,4.1475467E2,1.4398151E3,1.3509017E4,5.1564594E2,1.7691845E1,2.806216E1,2.0294797E3,1.0755776E4,5.0544645E4,1.3316557E4,7.923259E3,2.3726148E4,4.2762705E3,4.5691818E2,2.6413413E3,8.1442188E3,9.888527E3,7.8433633E3,1.600347E2,6.493583E2,3.3992227E3,5.321642E2,7.308862E2,3.7441895E2,4.331759E3,1.053746E3,9.401244E1,3.2074225E2,5.9263496E1,1.3805516E3,1.3496899E4,1.2117801E1,5.156686E1,4.6407907E2,1.5157721E3,5.1370764E2,5.655275E3,5.100502E3,1.6933207E4,3.3611438E4,8.221118E3,5.0954385E3,4.577029E3,3.3462305E3,1.4605694E4,9.120454E3,3.9501606E3,3.261099E2,2.3994724E1,4.3292346E2,2.5209292E3,1.2041228E2,7.5381973E3,6.0602106E2,2.8831028E3,7.0054243E3,7.5836396E3,2.5972357E2,1.10750015E2,4.928467E1,5.787837E2,7.057453E1,9.245068E2,2.4747158E3,6.5060326E1,4.6710388E2,4.140483E2,3.1683792E2,3.6917816E2,5.240781E0,5.5470642E1,4.276288E3,6.066809E2,4.4706512E2,8.407588E0,8.560485E1,2.73454E2,4.728822E1,4.26803E1,1.3378713E3,1.3494123E4,2.775981E0,6.591256E0,5.5265446E0,4.01688E1,1.139806E1,8.654584E1,3.7753323E2],"tree_param":{"num_deleted":"0","num_feature":"366","num_nodes":"113","size_leaf_vector":"1"}},{"base_weights":[1.7358662E-3,-1.6523804E-1,1.1021396E0,1.6946571E-2,-7.945891E-1,7.103321E-1,1.2438927E0,3.8709906E-1,-2.021191E-1,-9.095766E-1,-2.2510572E-1,1.0866971E0,1.9653782E-1,1.2549325E0,-1.250529E0,7.526001E-1,-4.9215765E-3,-3.8794443E-1,3.3112827E-1,-1.0008838E0,-6.335739E-1,-8.87494E-1,3.0323971E-2,1.1058133E0,-9.230339E-2,-6.8896693E-1,4.4991758E-1,1.2654876E0,3.881233E-1,-1.4841326E0,6.0677957E-2,-8.6067873E-1,8.069779E-1,-1.90705E-1,9.572152E-1,-4.9875247E-1,4.5122015E-1,3.8459733E-1,-1.2421616E0,-1.1933738E0,-8.823319E-1,-8.650487E-1,-4.707112E-1,-9.425131E-1,1.5072482E0,7.2552454E-1,-1.7246887E-1,1.187183E0,6.39191E-1,-1.1375321E0,2.2966999E-1,-1.3674428E0,5.656521E-1,1.1196784E0,1.314646E0,-8.52025E-2,7.4474466E-1,-8.9546956E-2,-6.663359E-2,-5.919349E-2,5.0023854E-2,4.267804E-2,-3.1147737E-2,2.9685711E-2,-2.0974543E-2,-1.5706335E-4,5.7263434E-2,1.7034281E-2,-3.0769372E-2,-1.335642E-2,4.414564E-2,7.82477E-3,3.219378E-2,-7.38062E-2,8.966224E-2,-6.013692E-2,5.426249E-2,-4.5725565E-2,1.6448772E-2,-4.8490636E-2,5.5164895E-3,-1.2425288E-2,-4.8580233E-2,8.9547805E-2,-4.9476724E-2,-6.643673E-2,1.1063246E-1,4.4458378E-2,-7.105353E-2,-2.422912E-2,4.3668926E-2,-1.0211181E-1,5.969252E-2,-9.5753424E-2,3.623551E-2,-6.454345E-2,-1.4163691E-3,3.4772944E-2,-8.892968E-2,-7.759373E-2,6.832688E-2,3.1506326E-2,-5.4821428E-2,6.1152257E-2,8.800269E-3,6.58336E-2,-8.5822664E-2,-9.001901E-2,4.6140887E-2],"categories":[],"categories_nodes":[],"categories_segments":[],"categories_sizes":[],"default_left":[0,0,0,0,0,0,0,0,0,0,0,0,0,0,0,0,0,0,0,0,0,0,0,0,0,0,0,0,0,0,0,0,0,0,0,0,0,0,0,0,0,0,0,0,0,0,0,0,0,0,0,0,0,0,0,0,0,0,0,0,0,0,0,0,0,0,0,0,0,0,0,0,0,0,0,0,0,0,0,0,0,0,0,0,0,0,0,0,0,0,0,0,0,0,0,0,0,0,0,0,0,0,0,0,0,0,0,0,0],"id":13,"left_children":[1,3,5,7,9,11,13,15,17,19,21,23,25,27,29,31,33,35,37,39,41,43,45,47,-1,49,51,53,55,57,-1,59,61,63,65,67,69,71,73,75,77,79,81,83,85,87,89,91,93,95,97,99,101,103,105,-1,107,-1,-1,-1,-1,-1,-1,-1,-1,-1,-1,-1,-1,-1,-1,-1,-1,-1,-1,-1,-1,-1,-1,-1,-1,-1,-1,-1,-1,-1,-1,-1,-1,-1,-1,-1,-1,-1,-1,-1,-1,-1,-1,-1,-1,-1,-1,-1,-1,-1,-1,-1,-1],"loss_changes":[3.072989E4,1.664989E4,1.2229082E3,9.131755E3,2.1345234E3,1.1322461E3,4.471172E2,5.9992236E3,7.0104463E3,6.828828E2,9.2684766E2,1.9153516E2,5.561408E2,1.4688672E2,4.3126E1,1.9015215E3,3.6114194E3,4.878678E3,1.5384928E3,4.6399023E2,2.5386816E2,2.0228723E2,5.576147E2,1.2676904E2,0E0,2.2753677E2,4.060312E2,1.1259766E2,1.4693497E2,6.813965E-1,0E0,4.2645544E2,1.396793E3,3.0392866E3,5.905354E2,4.5377637E3,1.8981262E3,1.0456985E3,4.2958252E2,1.6698438E2,4.920332E2,2.8463965E2,4.4067468E2,1.9340076E2,7.220563E1,3.150213E2,9.999776E2,6.399414E1,1.1080284E2,6.3022797E1,1.7128754E2,6.0434082E1,1.9487976E2,3.9184326E2,7.531055E1,0E0,7.757397E1,0E0,0E0,0E0,0E0,0E0,0E0,0E0,0E0,0E0,0E0,0E0,0E0,0E0,0E0,0E0,0E0,0E0,0E0,0E0,0E0,0E0,0E0,0E0,0E0,0E0,0E0,0E0,0E0,0E0,0E0,0E0,0E0,0E0,0E0,0E0,0E0,0E0,0E0,0E0,0E0,0E0,0E0,0E0,0E0,0E0,0E0,0E0,0E0,0E0,0E0,0E0,0E0],"parents":[2147483647,0,0,1,1,2,2,3,3,4,4,5,5,6,6,7,7,8,8,9,9,10,10,11,11,12,12,13,13,14,14,15,15,16,16,17,17,18,18,19,19,20,20,21,21,22,22,23,23,25,25,26,26,27,27,28,28,29,29,31,31,32,32,33,33,34,34,35,35,36,36,37,37,38,38,39,39,40,40,41,41,42,42,43,43,44,44,45,45,46,46,47,47,48,48,49,49,50,50,51,51,52,52,53,53,54,54,56,56],"right_children":[2,4,6,8,10,12,14,16,18,20,22,24,26,28,30,32,34,36,38,40,42,44,46,48,-1,50,52,54,56,58,-1,60,62,64,66,68,70,72,74,76,78,80,82,84,86,88,90,92,94,96,98,100,102,104,106,-1,108,-1,-1,-1,-1,-1,-1,-1,-1,-1,-1,-1,-1,-1,-1,-1,-1,-1,-1,-1,-1,-1,-1,-1,-1,-1,-1,-1,-1,-1,-1,-1,-1,-1,-1,-1,-1,-1,-1,-1,-1,-1,-1,-1,-1,-1,-1,-1,-1,-1,-1,-1,-1],"split_conditions":[2E0,1E0,3E0,2E0,6.85E1,1E0,5.83E2,5.2E1,1.1985E2,1.5995E2,1.1502581E2,9.5E2,2.606907E6,1E0,4.44E2,1.5E2,6E0,2E0,8.1E1,4.65E2,2.25E2,6.24E2,4E0,7.495E1,-9.230339E-2,2E0,1.5E2,5E0,1E0,1.6E1,6.0677957E-2,4E0,3E0,1E0,1E0,1E0,3E0,4.218E2,4E0,2E0,5.83E2,2.9479846E2,3.9E2,1.137E3,2E0,6E0,7.945E3,1.18E2,-2.8E1,4.65E2,4.1E2,2.082942E2,5E0,2E0,4E0,-8.52025E-2,2E0,-8.9546956E-2,-6.663359E-2,-5.919349E-2,5.0023854E-2,4.267804E-2,-3.1147737E-2,2.9685711E-2,-2.0974543E-2,-1.5706335E-4,5.7263434E-2,1.7034281E-2,-3.0769372E-2,-1.335642E-2,4.414564E-2,7.82477E-3,3.219378E-2,-7.38062E-2,8.966224E-2,-6.013692E-2,5.426249E-2,-4.5725565E-2,1.6448772E-2,-4.8490636E-2,5.5164895E-3,-1.2425288E-2,-4.8580233E-2,8.9547805E-2,-4.9476724E-2,-6.643673E-2,1.1063246E-1,4.4458378E-2,-7.105353E-2,-2.422912E-2,4.3668926E-2,-1.0211181E-1,5.969252E-2,-9.5753424E-2,3.623551E-2,-6.454345E-2,-1.4163691E-3,3.4772944E-2,-8.892968E-2,-7.759373E-2,6.832688E-2,3.1506326E-2,-5.4821428E-2,6.1152257E-2,8.800269E-3,6.58336E-2,-8.5822664E-2,-9.001901E-2,4.6140887E-2],"split_indices":[273,114,14,8,323,27,282,35,323,1,358,218,0,143,9,5,14,23,26,360,7,29,29,171,0,202,5,14,56,33,0,14,39,27,40,27,14,323,127,119,4,358,1,3,73,33,360,5,340,9,347,224,185,26,300,0,13,0,0,0,0,0,0,0,0,0,0,0,0,0,0,0,0,0,0,0,0,0,0,0,0,0,0,0,0,0,0,0,0,0,0,0,0,0,0,0,0,0,0,0,0,0,0,0,0,0,0,0,0],"split_type":[0,0,0,0,0,0,0,0,0,0,0,0,0,0,0,0,0,0,0,0,0,0,0,0,0,0,0,0,0,0,0,0,0,0,0,0,0,0,0,0,0,0,0,0,0,0,0,0,0,0,0,0,0,0,0,0,0,0,0,0,0,0,0,0,0,0,0,0,0,0,0,0,0,0,0,0,0,0,0,0,0,0,0,0,0,0,0,0,0,0,0,0,0,0,0,0,0,0,0,0,0,0,0,0,0,0,0,0,0],"sum_hessian":[1.6724578E5,1.452123E5,2.2033482E4,1.1261381E5,3.2598482E4,5.855313E3,1.617817E4,4.186845E4,7.074536E4,2.7121613E4,5.476869E3,3.3790059E3,2.476307E3,1.6107378E4,7.0791985E1,2.1666623E4,2.0201828E4,5.2463293E4,1.8282066E4,2.0377652E4,6.7439624E3,1.5235297E3,3.9533396E3,3.3577427E3,2.126324E1,5.5054785E2,1.925759E3,